<?xml version="1.0"?>
<opencv_storage>
<opencv_ml_ann_mlp>
  <format>3</format>
  <layer_sizes>
    192 128 128 128 34</layer_sizes>
  <activation_function>SIGMOID_SYM</activation_function>
  <f_param1>1.</f_param1>
  <f_param2>1.</f_param2>
  <min_val>-9.4999999999999996e-01</min_val>
  <max_val>9.4999999999999996e-01</max_val>
  <min_val1>-9.7999999999999998e-01</min_val1>
  <max_val1>9.7999999999999998e-01</max_val1>
  <training_params>
    <train_method>BACKPROP</train_method>
    <dw_scale>1.0000000000000000e-03</dw_scale>
    <moment_scale>1.0000000000000001e-01</moment_scale>
    <term_criteria>
      <epsilon>1.0000000000000000e-04</epsilon>
      <iterations>10000</iterations></term_criteria></training_params>
  <input_scale>
    2.7736713105936762e-02 -2.2173707399701348e+00
    1.8151174213409439e-02 -2.1300296167822954e+00
    1.8101850352901065e-02 -2.4075248006413088e+00
    1.9221662936597179e-02 -2.4803294647568470e+00
    1.6051584349434031e-02 -2.0027372950620022e+00
    1.5188430959629240e-02 -1.9661423877240050e+00
    1.6312623938840677e-02 -2.1615378198300754e+00
    1.9233692100013029e-02 -2.5484189475056089e+00
    1.9805845722522371e-02 -2.5864686938991643e+00
    1.6866663411557865e-02 -1.9545486423981759e+00
    2.0299630743014101e-02 -1.7282747385824389e+00
    3.4298831295134655e-02 -1.9521078952710316e+00
    2.8096406705313388e-02 -2.3070785910635920e+00
    1.7211082534300856e-02 -2.3431269003859150e+00
    1.6697055799571797e-02 -2.7407431351194771e+00
    1.7166922890686293e-02 -2.7344888526876123e+00
    1.4712236414973203e-02 -2.1447844416016522e+00
    1.3793867474745074e-02 -2.0039811807706553e+00
    1.4514989286079151e-02 -2.1866660594898404e+00
    1.6533184116429872e-02 -2.6347379461966862e+00
    1.8642216052779562e-02 -3.1207508312730701e+00
    1.7012562397292128e-02 -2.5347216863518454e+00
    1.8930629613639595e-02 -1.9037977419213410e+00
    3.0970045682556142e-02 -1.8163020909122631e+00
    3.0417831764100060e-02 -2.2899975179391658e+00
    1.7333091503839611e-02 -2.2956864021941263e+00
    1.5622894309594211e-02 -2.5265252778097467e+00
    1.7809974640660656e-02 -2.5561923249843272e+00
    2.0090460353372457e-02 -2.2414099362007804e+00
    1.8344094271805764e-02 -1.8606630632766372e+00
    1.8353305369014018e-02 -2.0305449296558202e+00
    1.8934554799318080e-02 -2.5302022818860523e+00
    1.6530020769026644e-02 -2.6419834959718997e+00
    1.5848977059685108e-02 -2.4290981305164787e+00
    1.9424291516905421e-02 -2.0155673222786077e+00
    3.0019333951372209e-02 -1.7434699406004897e+00
    2.9612597929254601e-02 -2.1336573575038038e+00
    1.5472922998955894e-02 -1.9911649521385781e+00
    1.4296670768175873e-02 -2.2222997336242605e+00
    1.7429717741261921e-02 -2.2611880408993343e+00
    1.7378301816516898e-02 -1.6001429186124745e+00
    1.6049743706615219e-02 -1.3408711174563137e+00
    1.6018986902308883e-02 -1.4481352618356669e+00
    1.7153522109432304e-02 -1.8935268541246162e+00
    1.5455305545364671e-02 -2.2069721750970595e+00
    1.3870146713185930e-02 -2.0303936649744694e+00
    1.6843223451040206e-02 -1.7649617543205007e+00
    2.7785286258777811e-02 -1.6557088638745352e+00
    3.1278780876181154e-02 -2.1443076233251652e+00
    1.5177412970590399e-02 -1.8935697537707890e+00
    1.4033071919854702e-02 -2.1333983954863815e+00
    1.7936631751460180e-02 -2.2912780947307927e+00
    1.5767785862261206e-02 -1.4874308913960252e+00
    1.4632313200324451e-02 -1.3440037891789780e+00
    1.4451065560706317e-02 -1.3847351045340810e+00
    1.5697852151814021e-02 -1.6403424435884675e+00
    1.5953392667178413e-02 -2.0358124382586373e+00
    1.3330530456379537e-02 -1.7792494244784880e+00
    1.5632846947475843e-02 -1.5805543927283843e+00
    2.6752489310584236e-02 -1.5958646711684397e+00
    3.3604464776411776e-02 -2.1740309650438490e+00
    1.5281454629703865e-02 -1.8445524756238842e+00
    1.3432745067621295e-02 -2.0277202776459085e+00
    1.7976904815402851e-02 -2.3509032906095793e+00
    1.6106478852169179e-02 -1.6540690573225012e+00
    1.4249755602084477e-02 -1.4767776129266137e+00
    1.4126479500570039e-02 -1.5132035550195910e+00
    1.6075667311447262e-02 -1.7665361683051615e+00
    1.6280967274710956e-02 -1.9978662253985016e+00
    1.2687384803305436e-02 -1.5916995920824490e+00
    1.5082196029794262e-02 -1.4621035706483259e+00
    2.7355863359447702e-02 -1.5831159959798968e+00
    3.5847474951922649e-02 -2.1530626058623894e+00
    1.5818533586278494e-02 -1.8296646447865370e+00
    1.3182038041946316e-02 -1.9932637264627273e+00
    1.6654670004992971e-02 -2.3011757545898788e+00
    1.6110202312894551e-02 -1.9084998552918511e+00
    1.4771974342915569e-02 -1.8388848813795085e+00
    1.4781636182046424e-02 -1.9182390125844857e+00
    1.6554699976176406e-02 -2.1756381469867221e+00
    1.6733661822372622e-02 -2.2898145971125023e+00
    1.3265977711369559e-02 -1.7462006461475750e+00
    1.5578818608562015e-02 -1.5027236789709457e+00
    2.8297855849635994e-02 -1.5775555262245309e+00
    3.7261831736285049e-02 -2.0875174074894423e+00
    1.5957198395463241e-02 -1.7513025239020907e+00
    1.2923086557494096e-02 -1.9280104871437882e+00
    1.5021168588660606e-02 -2.1625622977833765e+00
    1.4597027394204175e-02 -1.9138162616541095e+00
    1.4673706939426269e-02 -2.0830449107516840e+00
    1.4816059986369007e-02 -2.2362838023661156e+00
    1.5306077017371755e-02 -2.3221569729031977e+00
    1.5003868959345804e-02 -2.2771636693757236e+00
    1.3305958849641803e-02 -1.8677652707588372e+00
    1.5366720980133445e-02 -1.5076199561132568e+00
    2.8077524315780041e-02 -1.5317775971427672e+00
    3.8138417729087784e-02 -2.0523852985458038e+00
    1.6047038984532601e-02 -1.6898853571570378e+00
    1.2545399792676415e-02 -1.8212230675497718e+00
    1.4747391669117505e-02 -2.0497573179631940e+00
    1.4714725273235800e-02 -1.7659141800410285e+00
    1.4510276376502042e-02 -1.8328868991395855e+00
    1.4099273397346356e-02 -1.9279346443531409e+00
    1.5052758866209099e-02 -2.1163736237688044e+00
    1.5375598570358103e-02 -2.2358381438737500e+00
    1.2956490348988129e-02 -1.8095110636045932e+00
    1.4532761697101519e-02 -1.4890096661183190e+00
    2.6794408536925836e-02 -1.5148455287602818e+00
    3.8560288841212591e-02 -2.0964548567281853e+00
    1.6493170028684015e-02 -1.7254766409420308e+00
    1.2242211398612772e-02 -1.7558859783013847e+00
    1.4828259512209535e-02 -1.9521752548047671e+00
    1.6694057108332293e-02 -1.6650063357835041e+00
    1.5563163156023201e-02 -1.5228463600150137e+00
    1.4194844998646150e-02 -1.5194913578344884e+00
    1.4932077492511291e-02 -1.7029068186959613e+00
    1.5792706129268252e-02 -2.0031561352635201e+00
    1.2598635526192651e-02 -1.6847932960315204e+00
    1.3819366572354400e-02 -1.4882482313726462e+00
    2.5075316471132075e-02 -1.5489612991664663e+00
    3.8494893347066308e-02 -2.1723800518495020e+00
    1.7390679180521181e-02 -1.8546340961123227e+00
    1.2814059470442445e-02 -1.8731742887533596e+00
    1.5707716705494958e-02 -2.0893018786645965e+00
    1.6914958157447785e-02 -1.5841753812234656e+00
    1.5323798626141619e-02 -1.3406070298075954e+00
    1.4225682420454248e-02 -1.3765272392940489e+00
    1.4376825641492308e-02 -1.5112073418710743e+00
    1.5579586058849565e-02 -1.8937536722274899e+00
    1.3119893266140154e-02 -1.7689937969950480e+00
    1.3549664788108510e-02 -1.5449327791401324e+00
    2.3449156331125928e-02 -1.5841422400026404e+00
    3.8046435512460348e-02 -2.2140563640071704e+00
    1.8609629639427069e-02 -2.0725763466249214e+00
    1.4238570022644486e-02 -2.2069699778804703e+00
    1.6914785929289158e-02 -2.4069740377378475e+00
    1.7044574922531076e-02 -1.6664280377347780e+00
    1.6249261121341389e-02 -1.4073962976638521e+00
    1.4908444516979797e-02 -1.4169687242797222e+00
    1.4371787642455953e-02 -1.5029423736989276e+00
    1.5321533185566923e-02 -1.8670189453271271e+00
    1.3297960688034679e-02 -1.8314733692543008e+00
    1.3535238364277231e-02 -1.6112268129786416e+00
    2.2405705962192230e-02 -1.5982253659372450e+00
    3.8311454632465644e-02 -2.1880573186592480e+00
    1.9540589933231645e-02 -2.1922817735385913e+00
    1.5006074086510147e-02 -2.4444541602828878e+00
    1.6787974937362934e-02 -2.6160306333717660e+00
    1.7967240752230208e-02 -1.9817126722149534e+00
    1.6741336947613639e-02 -1.5424089165194343e+00
    1.4940849626040588e-02 -1.4453162716776475e+00
    1.5471362885513108e-02 -1.6725999407511247e+00
    1.5531519235228147e-02 -1.9775826632826727e+00
    1.3073396985813763e-02 -1.8602828692131299e+00
    1.3987017178296242e-02 -1.6946176353793905e+00
    2.2883196920189135e-02 -1.6359601299365332e+00
    3.9624827705719942e-02 -2.1041948947846278e+00
    2.1463947608720637e-02 -2.1885019757397597e+00
    1.5614773052607762e-02 -2.4500589287209689e+00
    1.6221272562733664e-02 -2.6433422414227827e+00
    1.8893921495605884e-02 -2.4642786103145355e+00
    1.9224535567846392e-02 -2.1400639908623265e+00
    1.7233217433658285e-02 -1.9132419366714684e+00
    1.9238482649928862e-02 -2.3618745646682666e+00
    1.6479395919272510e-02 -2.3333370557344058e+00
    1.3658256225480423e-02 -2.0355622336986587e+00
    1.5905977069585183e-02 -1.9017279748967042e+00
    2.5578725299536847e-02 -1.7655639906460312e+00
    3.9457763823016259e-02 -1.9558981422576083e+00
    2.0492201754851180e-02 -1.7597256358707027e+00
    1.5347671379333822e-02 -2.0716015986565157e+00
    1.5752684126238412e-02 -2.4585399441515889e+00
    1.5052037290985995e-02 -2.2245051746764886e+00
    1.3973877168290473e-02 -1.9945079280855911e+00
    1.3426695119203786e-02 -1.9375668823725360e+00
    1.4443698650913864e-02 -2.1296978771972768e+00
    1.5272685304123210e-02 -2.3357865225475400e+00
    1.4568095312084360e-02 -2.1331804881450211e+00
    1.5637981907785949e-02 -1.7700355757036308e+00
    2.4262407365773661e-02 -1.6627455927894674e+00
    3.9759508994779931e-02 -1.9262312710647500e+00
    2.3522915604308005e-02 -1.6685357518502828e+00
    1.6926675041093114e-02 -1.7074634094687611e+00
    1.7758145797695229e-02 -2.0702655290315422e+00
    1.7747454470250841e-02 -2.1114668567212433e+00
    1.5684632386342191e-02 -1.9433259526677975e+00
    1.4624209206993003e-02 -1.8711073507027260e+00
    1.5661658478309227e-02 -1.9407466549306727e+00
    1.8031901169278108e-02 -2.1189287064018707e+00
    1.6924159379094340e-02 -1.8460873050716107e+00
    1.7060607314011284e-02 -1.5501167448997042e+00
    2.5425813833778808e-02 -1.6308715247428875e+00</input_scale>
  <output_scale>
    5.2631578947368418e-01 4.9999999999999994e-01 5.2631578947368418e-01
    4.9999999999999994e-01 5.2631578947368418e-01 4.9999999999999994e-01
    5.2631578947368418e-01 4.9999999999999994e-01 5.2631578947368418e-01
    4.9999999999999994e-01 5.2631578947368418e-01 4.9999999999999994e-01
    5.2631578947368418e-01 4.9999999999999994e-01 5.2631578947368418e-01
    4.9999999999999994e-01 5.2631578947368418e-01 4.9999999999999994e-01
    5.2631578947368418e-01 4.9999999999999994e-01 5.2631578947368418e-01
    4.9999999999999994e-01 5.2631578947368418e-01 4.9999999999999994e-01
    5.2631578947368418e-01 4.9999999999999994e-01 5.2631578947368418e-01
    4.9999999999999994e-01 5.2631578947368418e-01 4.9999999999999994e-01
    5.2631578947368418e-01 4.9999999999999994e-01 5.2631578947368418e-01
    4.9999999999999994e-01 5.2631578947368418e-01 4.9999999999999994e-01
    5.2631578947368418e-01 4.9999999999999994e-01 5.2631578947368418e-01
    4.9999999999999994e-01 5.2631578947368418e-01 4.9999999999999994e-01
    5.2631578947368418e-01 4.9999999999999994e-01 5.2631578947368418e-01
    4.9999999999999994e-01 5.2631578947368418e-01 4.9999999999999994e-01
    5.2631578947368418e-01 4.9999999999999994e-01 5.2631578947368418e-01
    4.9999999999999994e-01 5.2631578947368418e-01 4.9999999999999994e-01
    5.2631578947368418e-01 4.9999999999999994e-01 5.2631578947368418e-01
    4.9999999999999994e-01 5.2631578947368418e-01 4.9999999999999994e-01
    5.2631578947368418e-01 4.9999999999999994e-01 5.2631578947368418e-01
    4.9999999999999994e-01 5.2631578947368418e-01 4.9999999999999994e-01
    5.2631578947368418e-01 4.9999999999999994e-01</output_scale>
  <inv_output_scale>
    1.8999999999999999e+00 -9.4999999999999996e-01
    1.8999999999999999e+00 -9.4999999999999996e-01
    1.8999999999999999e+00 -9.4999999999999996e-01
    1.8999999999999999e+00 -9.4999999999999996e-01
    1.8999999999999999e+00 -9.4999999999999996e-01
    1.8999999999999999e+00 -9.4999999999999996e-01
    1.8999999999999999e+00 -9.4999999999999996e-01
    1.8999999999999999e+00 -9.4999999999999996e-01
    1.8999999999999999e+00 -9.4999999999999996e-01
    1.8999999999999999e+00 -9.4999999999999996e-01
    1.8999999999999999e+00 -9.4999999999999996e-01
    1.8999999999999999e+00 -9.4999999999999996e-01
    1.8999999999999999e+00 -9.4999999999999996e-01
    1.8999999999999999e+00 -9.4999999999999996e-01
    1.8999999999999999e+00 -9.4999999999999996e-01
    1.8999999999999999e+00 -9.4999999999999996e-01
    1.8999999999999999e+00 -9.4999999999999996e-01
    1.8999999999999999e+00 -9.4999999999999996e-01
    1.8999999999999999e+00 -9.4999999999999996e-01
    1.8999999999999999e+00 -9.4999999999999996e-01
    1.8999999999999999e+00 -9.4999999999999996e-01
    1.8999999999999999e+00 -9.4999999999999996e-01
    1.8999999999999999e+00 -9.4999999999999996e-01
    1.8999999999999999e+00 -9.4999999999999996e-01
    1.8999999999999999e+00 -9.4999999999999996e-01
    1.8999999999999999e+00 -9.4999999999999996e-01
    1.8999999999999999e+00 -9.4999999999999996e-01
    1.8999999999999999e+00 -9.4999999999999996e-01
    1.8999999999999999e+00 -9.4999999999999996e-01
    1.8999999999999999e+00 -9.4999999999999996e-01
    1.8999999999999999e+00 -9.4999999999999996e-01
    1.8999999999999999e+00 -9.4999999999999996e-01
    1.8999999999999999e+00 -9.4999999999999996e-01
    1.8999999999999999e+00 -9.4999999999999996e-01</inv_output_scale>
  <weights>
    <_>
      -1.0062754527871458e-02 -5.2054854840953332e-02
      4.2787205184979762e-02 -2.3248714223409093e-02
      2.5212279835610519e-02 -9.6925849941161185e-02
      1.7975357401674753e-03 -4.3310841682435645e-02
      3.4943410540704815e-02 5.3743331368014159e-02
      7.0027218352873288e-02 -3.1324513135813338e-02
      -3.1187683087799045e-03 2.7560315584196998e-02
      4.5817191672522968e-02 -6.2596009716423002e-03
      -9.8055551343608813e-02 -3.1819211163203021e-02
      2.7842409403075630e-02 2.0678163178334021e-02
      -7.3458558741623841e-03 -7.5171296963007103e-02
      -8.3530896080981118e-02 -1.0338173332162179e-02
      -4.2834654497593411e-02 -1.3930334161954017e-02
      -4.5790355209791946e-02 -5.3739905255241034e-02
      -3.6367028072788778e-02 4.5889473076150843e-02
      4.6107036058078366e-02 9.2843350496231852e-03
      -3.4326215136222492e-02 -2.4133953098817332e-02
      -9.3450582660553672e-02 -7.0642441305173347e-03
      1.2501907045515615e-02 -6.6340410240083345e-02
      -8.7670112101725251e-03 -6.0009019193044646e-02
      -1.1138489671683917e-01 -2.8637884469167405e-02
      4.0044822183456447e-03 -1.4374427465490431e-02
      -2.2028193738543537e-02 -5.2506063844215703e-02
      7.9660375493237623e-02 1.1269407354068561e-02
      8.0757734685667701e-02 3.1171490655535369e-02
      2.7624479402969439e-02 -6.1939697845147100e-02
      -4.0480903460097327e-02 1.5141249307969706e-02
      4.3542585250282727e-02 1.2836404325959177e-02
      1.1145141341205404e-01 -8.6274555146004614e-02
      6.4226184653685290e-03 -3.2217082032916901e-03
      -4.9644916820972267e-02 9.0600795260077999e-02
      7.0938563959692348e-03 -6.2061329406342763e-02
      4.3248518503292137e-02 4.0959173752615534e-02
      -2.7221557616360258e-02 1.2945291088976102e-02
      -2.8160848967770227e-02 2.8331634921232477e-02
      -1.9999737069883984e-02 4.2058567561438380e-02
      -5.8900733090782594e-02 -3.3065987284801236e-02
      9.6067076468501947e-02 4.3438171443169166e-02
      3.8185874259764836e-02 3.0227444268278579e-02
      8.0707554608709497e-03 -7.1607332442707755e-02
      1.0622614766633255e-03 -6.6626268822559988e-03
      -1.3493272265171011e-02 6.7069703685850987e-03
      1.4452297758367594e-02 -1.4591791120515307e-01
      -5.6775357134134603e-03 -2.7539815860422163e-02
      -3.0210965188975241e-02 -1.4958044642137343e-02
      -7.1753565381578704e-02 8.2495108725954697e-02
      -1.3829925477249413e-02 -1.0525722398585040e-03
      4.0341346976175300e-02 2.8582443358778822e-02
      -7.2141693411779631e-02 -3.0363413940710873e-02
      4.9641449220948715e-02 -1.0259092100966011e-01
      6.5353749915183071e-02 1.6456374724983427e-02
      -8.8918514732382006e-02 5.8538439466030830e-02
      -1.7488055436590603e-02 -1.8517551799312731e-02
      -3.0368257217481855e-03 1.2318787328574013e-02
      -1.8154103177145962e-02 -8.6018090246164306e-03
      -1.1943040394233766e-02 5.0210585820232759e-02
      1.0880524468626317e-01 -3.3830506376833228e-02
      -9.2890136454409564e-02 3.1995602695755652e-02
      -7.8753202029418809e-02 -5.1755483608964106e-02
      1.2698254156057619e-02 -1.4106778083381932e-02
      1.0674210245412438e-01 -1.2137788539758084e-02
      -1.7453463178624770e-02 -4.4685210648765482e-02
      -2.5088140716389262e-02 2.1227323810290764e-02
      7.4219907561850110e-02 1.5437821432817299e-03
      -7.5504093975818547e-03 -9.9804304524074003e-02
      5.3048217921384137e-02 -8.5078555006828774e-02
      5.3929716152336764e-02 -5.1863452353732187e-02
      -2.3998623292114787e-02 -1.3078384040191710e-01
      4.8711299935938045e-03 1.1950436571332906e-02
      6.3848646136609830e-02 2.4814785998157559e-02
      -6.4910298383957260e-02 3.1361391154853008e-02
      9.1163202655922038e-02 -5.0836144363261657e-04
      -1.9161749675968176e-01 -3.3801579507237334e-02
      3.3249395503947017e-02 3.6802562570619930e-02
      -7.4920055235630043e-02 -9.8409470915541475e-02
      -5.7067090134324629e-02 4.7761582972980818e-02
      -8.9851029192451137e-02 -4.4414518052809750e-02
      -2.5563798200735375e-02 -3.7395720114440249e-02
      -2.6862016614875193e-03 5.7443522544327684e-02
      4.0392211850362333e-02 1.4236639029439937e-02
      -9.6954620498150179e-02 -3.8943566048966531e-02
      -1.1915934171250302e-01 -2.1112624405025267e-02
      6.2654588105130929e-02 -9.6004570464493066e-02
      -1.6419550110755103e-04 -3.1662821443185767e-02
      -7.3416653543420446e-02 -2.0494864737023798e-02
      -4.6490138647823934e-02 -7.3252116543255724e-02
      -2.7635214402816702e-03 -4.8036295547765978e-02
      1.4875374820183942e-02 1.0646009322761205e-02
      5.8834958278635920e-02 -5.8021572374136457e-03
      5.6504040337952914e-02 -1.1072506805153311e-02
      6.0668366345290603e-02 3.4607069045341228e-02
      1.6932046657129962e-03 8.6345267546768273e-02
      6.7096915711635965e-02 -1.8003902998882662e-01
      1.6628435327838711e-03 -1.3892222843542598e-02
      1.4668434202836226e-02 1.5110134346090359e-01
      -1.7021556567461751e-02 -4.5973087670542909e-02
      1.0793765491993172e-02 1.9107276152049903e-02
      -1.5501881932152618e-02 8.1945951460980507e-02
      -6.2564666777183309e-02 4.5150721318161793e-02
      -2.7708471469252600e-02 4.0669064160748288e-02
      -4.7925544440051905e-02 9.3879028831024766e-03
      9.7412031246509656e-02 8.8170749911204105e-02
      4.1107944430982792e-02 5.8856258472674935e-02
      3.7130549286503639e-02 -1.2179009562927157e-01
      1.0563868549792634e-02 -1.8477436998138967e-02
      -3.2588323126491701e-02 -6.8998195260908494e-03
      1.3098397129162515e-02 -2.2931922066969915e-01
      2.0510993239096425e-02 -3.0550823302166828e-02
      -3.3099138155210810e-02 -1.0785353718176190e-02
      3.4264409823555206e-02 4.7498149711602128e-02
      6.9169461899801318e-02 7.5538562403093595e-03
      1.1273244228053663e-02 1.0455735882239416e-01
      -5.4369042014779885e-02 -6.6881226986727396e-02
      4.3681259921884381e-02 -6.9516479104152679e-02
      8.9693712151491231e-02 5.5319662012779880e-02
      -8.9816602267986601e-02 1.0708286521771364e-01
      -1.1694484137685007e-02 -1.7464634930562568e-02
      -6.4404391514195341e-03 4.7259477722980617e-03
      2.4351291549562292e-02 -3.5599000417997705e-02
      -1.3387755058773706e-02 7.0223337029134358e-02
      2.3555988483830489e-01 -2.6286342449773336e-04
      -2.3084279526627186e-02 6.7066800602295210e-02
      -1.0933118123767835e-01 -5.3022742615193318e-02
      4.8398048187109632e-02 -2.6200112414614708e-02
      1.0650194958797621e-01 2.4942530596923244e-02
      -1.9142724592674108e-02 -8.5521396664935412e-02
      -4.9559330557337369e-02 2.8180838843409894e-04
      3.0497055363115155e-02 -1.4548257636362539e-02
      -2.0736796943638742e-02 -9.1974578702281012e-02
      5.3138273625375043e-02 -9.6246535385612481e-02
      5.3488629131529880e-02 -4.2446478050874967e-02
      -2.1933208366633091e-02 -1.2507391167940882e-01
      3.5990090706077096e-03 -9.3079056991437585e-03
      5.1571431876862618e-02 7.4597264071111329e-03
      -3.3996586382935387e-02 2.6363160382449662e-02
      1.0908658747934283e-01 1.5948750812496627e-02
      -1.8401115515207769e-01 -9.7132492144677233e-03
      2.6467427890190052e-03 4.6683794039222390e-02
      -6.5029257303357499e-02 -5.7387859540662757e-02
      -5.5297413629245958e-02 4.6858546685053425e-02
      -8.1287344913201581e-02 -1.9901130382554109e-02
      -2.4678390141626379e-02 -2.4024928212717352e-02
      4.9267953621574432e-03 3.7664197607347662e-02
      3.0894854092784640e-02 -1.8661444657610174e-02
      -1.0192801342536396e-01 -4.8053480960273014e-04
      -9.8413122891778990e-02 6.0088677404034228e-03
      8.6329805129464657e-02 -8.3540606402219553e-02
      -5.5120523684856091e-03 3.9322565620222454e-02
      -3.7043226791005433e-02 -2.2530976175715051e-02
      -4.7510060988812469e-02 -3.3975346428349457e-02
      -1.2512034373791498e-02 6.6930223440620244e-03
      1.0275907006393661e-02 8.5858375564010093e-03
      2.5675596600169364e-02 -2.2993711278482955e-02
      2.4304594284172740e-02 1.9783704778757400e-04
      8.7184837376915750e-02 4.9724157783099156e-03
      7.2451315612965259e-03 8.9546944193823544e-02
      5.0729240185262224e-02 -1.5934003648430009e-01
      9.6040022501162840e-03 6.2671218111071299e-03
      3.4557380926138262e-02 1.2605350052569583e-01
      3.4205003329674361e-03 -1.8677096029329317e-02
      5.3818980188197058e-02 2.1587533618180083e-02
      2.5482364949089126e-03 6.4797753451836818e-02
      -5.3483453031794186e-02 2.9335308619666461e-02
      -4.7687387293485539e-02 2.1625176926216023e-02
      -4.7528548180240805e-02 5.4097275225546424e-03
      5.6149750285658891e-02 4.3268643957428077e-02
      1.1464988194636153e-02 6.2442125887854541e-02
      6.1482712119969904e-02 -1.0294785372824991e-01
      9.1039670553927261e-03 -1.2814847623119012e-02
      -4.0115682251637690e-02 -3.6641972881039625e-02
      1.4691064703585317e-02 -1.6585460746251010e-01
      9.6081047747580122e-03 -2.3055601633489412e-02
      -2.9780084354088434e-02 -2.4042915629479692e-02
      2.7973853418425797e-02 2.7635496522957614e-02
      1.0388465628579248e-01 1.9643985795202778e-02
      1.0629857003279463e-02 8.2186782411990567e-02
      -2.7231644979968654e-02 -7.6743088133790549e-02
      1.9236094392318510e-02 -5.6971441181880272e-02
      8.7160392968844827e-02 6.1150750790922054e-02
      -8.6055360362667158e-02 1.0912834582405355e-01
      2.0855846807674515e-02 -2.0785284807636337e-02
      -4.4187373922144391e-02 6.7456278102280684e-03
      1.0262578718978153e-02 -4.7156010364857351e-02
      -2.0422975800127786e-02 5.8828238269918301e-02
      2.0472806973767033e-01 4.5291628086716856e-02
      -2.1289796725335011e-02 7.7317607311224723e-02
      -7.0848331119624894e-02 -5.6862103095279464e-03
      4.2330362709035174e-02 -2.0920577563832535e-02
      5.4626899084425001e-02 3.3733946645609900e-02
      -1.6264772901991520e-02 -3.8977664165055735e-02
      -7.2273080427641301e-02 1.5085703804711678e-02
      3.6054341037744859e-02 -3.0332861327149923e-03
      -7.5301561939724211e-03 2.7442395130593860e-02
      4.7845655402896016e-02 -7.7159163884549270e-02
      1.0725010229441276e-01 -8.2062626179848386e-02
      4.2107811077058285e-02 6.3202813001486608e-03
      2.0736556578213488e-03 9.4139676470292796e-03
      8.0330360650793672e-02 6.3239674358476290e-04
      1.0536864926859330e-01 7.8053387266480518e-03
      1.5830851985895861e-01 7.9824780154583663e-02
      -3.4733771271751451e-02 2.7867471432253519e-02
      -4.2537586834456839e-02 4.4086620621552879e-02
      3.2317467272358812e-02 2.2057905768503614e-02
      -1.9428347685557911e-02 1.0639078019440633e-02
      -4.7597101385260236e-02 3.9531720258047381e-02
      2.2826266860912842e-02 -1.3206315873385405e-02
      8.3272083371116572e-03 -2.1493557385599282e-02
      -2.7932304768886713e-02 -2.7665175312715378e-02
      -9.4723870851421546e-02 8.3130899748829812e-02
      -5.0692343258258138e-02 2.7524536575605395e-02
      6.8935227702057025e-02 -4.4863801571635720e-02
      -8.3707383338827421e-02 1.5016214713731246e-01
      -2.3271479716858390e-02 -6.6240218614275537e-02
      -7.9760236182408573e-02 3.3850793622840866e-02
      -3.1009647447725608e-02 1.0478595691804322e-01
      6.8777683705012652e-02 -3.4543671508378115e-02
      -7.0036360679921042e-02 -5.5117218865037898e-02
      -3.7011219379663562e-02 6.2392057389830918e-02
      7.0080204700908075e-02 -1.0124267322408911e-02
      1.1535868775975736e-02 5.3584695849055460e-02
      2.8134495578116127e-02 3.1586684386537618e-02
      8.0220492095954124e-02 5.7700576421752393e-02
      1.9052832577502465e-02 -4.5921121470867819e-02
      2.8601028326647529e-02 3.2631829034314055e-03
      1.4698208145572320e-01 1.2187859197736579e-02
      -5.2724424099824981e-02 7.3590759164773895e-02
      7.6016676408825451e-02 -2.6232583024214877e-02
      -9.0888726669477921e-02 2.6401979918930597e-02
      -2.5139572743463470e-02 -1.9957257488718814e-02
      -6.9139960848768917e-02 -2.8220877434773219e-02
      -9.6667870106161582e-02 2.5559973275395356e-02
      8.9182047510967227e-02 8.2723129841968035e-04
      6.5502425868351422e-02 2.7856208167061407e-02
      -3.7602098371092553e-02 -7.8780328432449670e-02
      -7.0576538132366244e-03 4.6766273857938384e-02
      -3.6089126859470938e-02 -2.1297997563364885e-02
      -3.2228425766677657e-02 -4.8583478388632910e-02
      -1.1996396914369628e-02 5.6951457751621047e-02
      1.1570817387207658e-01 4.0313883782502925e-02
      3.6873195904318722e-02 -2.6740691444322867e-02
      1.8294633956665057e-02 -1.0081813517006441e-02
      -5.0743582037551971e-02 -5.3932458153143036e-02
      3.4219608520882530e-02 1.2210793759848269e-02
      1.0785526940201197e-02 8.0038267095575613e-02
      6.2735789079561691e-02 1.3257330993699050e-02
      -7.7150306060153898e-02 1.2271313257095393e-02
      -1.2181421259710324e-02 -1.0541373952365280e-02
      -1.9592705454788178e-02 1.6195402300276968e-02
      4.1564229086677978e-02 9.0106215545815965e-02
      -8.6032280552401461e-02 7.3819464014191177e-02
      1.0140557425011495e-01 4.7963480651383596e-02
      -1.0584117519792234e-02 1.5691768468079431e-02
      -9.4543565743406943e-02 4.4569174525099391e-02
      -6.0270339370258157e-02 9.5500536915281167e-02
      -6.9801206015322748e-02 1.6206705478040418e-02
      8.3565747840946669e-02 3.6891607764310955e-02
      -8.1144255090796757e-03 1.3366156344135321e-01
      5.9921805088308577e-02 -3.1327284251058740e-02
      1.1738773917998847e-01 -8.6938735067998180e-02
      1.0247994255258498e-01 1.2502467190047020e-01
      1.1734353393569680e-02 5.2457893990321511e-02
      7.8874594780624085e-02 -9.1130915737443700e-03
      1.7880065489874680e-01 3.5756825743691503e-02
      1.5652278861241214e-01 9.7749036745003390e-02
      6.7256078243532566e-02 3.7126161097985270e-02
      -1.1726994071294260e-02 3.7035584518854990e-02
      8.0991241563122693e-02 3.5102934821993427e-02
      -2.1737709832073401e-02 -2.1182889707127426e-02
      -2.0695609016883415e-02 7.2806996057606321e-02
      2.8394078273731693e-02 -3.8219952920732589e-02
      -1.3508076594621922e-02 -7.3921710298777435e-02
      -8.4340186574113976e-02 -8.5853114229639434e-03
      -4.7024735281896581e-02 1.1938236209512097e-01
      -1.8760239524712830e-02 4.4352241487979886e-02
      -3.7103684045415662e-02 -5.5453614245010189e-03
      -1.0858994627735415e-01 1.0832166320416044e-01
      -6.9537082610138844e-03 -4.5585711657106155e-02
      -5.7679387952134391e-02 1.1651931693299825e-02
      -3.0422531074085213e-02 1.0985459503188381e-01
      1.0226266329214985e-01 -3.9949600313028223e-02
      -5.9483180494324446e-02 -5.9106270076374687e-02
      -5.8164142510512322e-02 7.0806933602026972e-02
      2.4123922037830196e-02 -6.3613035298783057e-03
      3.7103092300871672e-02 1.5885487341300408e-02
      3.4583105353375915e-02 1.5304000888907024e-01
      6.8277936247257462e-02 4.1055633888939819e-02
      -1.1884696842097827e-02 -1.7408948996350262e-01
      -7.9927262694549613e-04 -2.5150417541632518e-03
      1.2792122123484087e-01 3.2346292302194261e-02
      -1.0153806483048575e-01 3.8374763999210373e-02
      1.4644334259167635e-01 -3.7936418533000442e-02
      -7.3605806067883153e-02 3.1511217628508968e-02
      5.0572765676147298e-04 -1.9262435556603560e-02
      -1.2147906265455528e-01 -5.9470520070982497e-02
      -1.3526482571203977e-01 1.3714642197052469e-02
      6.2197370122542034e-02 9.5647261018203339e-02
      1.0178485872251444e-01 6.1480719709633612e-02
      -5.9729405743576561e-02 -6.5554745128642039e-02
      -2.5623339692174320e-02 2.1056659063652355e-01
      -4.0719178658377514e-02 -3.4567095292229434e-02
      -3.3404903532924246e-02 -6.0242482115872867e-02
      -8.2303933769035553e-02 8.1972495971876697e-02
      5.8544751243025328e-02 2.3617803458672735e-02
      7.9294286391676405e-02 -1.1952874633244250e-01
      4.4297965669211327e-02 5.8913147435790611e-02
      -5.3267434321998833e-02 -5.6999240254534136e-02
      3.3260551650677560e-02 -3.2984334679431140e-02
      6.5304093846424147e-02 1.9061777871793088e-02
      5.1021496946348555e-02 3.0108947648840551e-02
      -4.2157305308110807e-02 5.3743029633898055e-03
      1.1591128101291709e-02 2.2854665571814042e-03
      2.8084626249627438e-02 2.1025239163369222e-02
      -8.2316722699705164e-02 5.4764874706928104e-02
      -1.1590430381849416e-01 5.5728772514604036e-02
      2.2734617572748902e-01 2.4952307995076653e-02
      -2.0669724448061089e-02 4.6894775562390231e-02
      -1.2354281502299054e-01 6.0337124610652416e-02
      -3.2775152201991696e-02 1.7165874787372257e-01
      -2.6285336636204214e-02 -4.3323995832664809e-02
      8.6767111108963291e-02 2.2912677927917322e-02
      -1.3154506268577911e-02 1.5875021815839510e-01
      4.5369404966741460e-02 8.6726992220353648e-03
      6.8098941826091317e-02 -8.1208359819377712e-02
      1.0277000736023298e-01 1.5271057703045179e-01
      1.6516267806156577e-02 5.2563354664271221e-02
      7.6075730969923497e-02 -1.9887599006635269e-03
      1.4996567881312006e-01 4.4826164595343020e-02
      1.1893832232286908e-01 7.5098007406601941e-02
      8.7579047119516112e-02 1.7703423283124842e-02
      4.0063945951207526e-02 2.9407166128066198e-02
      9.6202873090669508e-02 -8.7747659310919779e-04
      -4.1228345901342153e-02 -3.5189972805123627e-02
      -2.3507204767471927e-02 5.4774859781769804e-02
      2.7129451607958211e-03 -4.7718075715071653e-02
      -2.0036621832697020e-02 -1.0005493964147154e-01
      -8.6297252807219421e-02 1.2222087569824756e-02
      -5.6788602676486341e-04 8.7103365903333937e-02
      -3.5521453517382718e-03 4.5172447119016168e-03
      -9.2261962044237381e-02 -5.2677513395846427e-03
      -9.2258901692545470e-02 8.1635175252995490e-03
      -4.0099855534161170e-02 -1.6548353390262619e-02
      -2.7493381171823685e-02 -3.7610316360587315e-02
      -1.7610357591490801e-02 6.8020634019534468e-02
      1.1117783123593734e-01 -1.6055762652520098e-02
      -1.6603167514260746e-03 -2.2603754948423021e-02
      -3.9856251553846006e-02 5.4782730463344982e-02
      -4.0035933156304666e-02 -5.2311130702746003e-03
      3.2084207155338509e-02 1.1139580087199416e-02
      3.2911099344621782e-02 1.6025922326522707e-01
      3.9754682637468113e-02 3.9182236459686798e-02
      -1.5148906632829447e-02 -1.9210035231406491e-01
      -1.6667464615977515e-02 -3.0924632297276849e-02
      5.9126973201708621e-02 4.3309918630570619e-02
      -1.3079434652498351e-01 2.5992439607354638e-02
      1.3838696752174512e-01 -4.2595505240287969e-02
      -4.5692207182453232e-02 3.1308980108195890e-02
      1.3365952123237627e-02 -3.8976398261274407e-02
      -9.5861389498771307e-02 -3.0523304625808670e-02
      -1.0251634725286451e-01 8.8321564077725716e-03
      2.4498328621226348e-02 1.1766527352317188e-01
      7.9100238346176563e-02 5.2371829718953274e-02
      -6.9262912297283014e-02 -4.1295846479711171e-02
      -1.7992948484267992e-02 2.3551594099679263e-01
      -2.4684310605721332e-02 -4.1711821382037349e-02
      -3.3331919990465496e-02 -3.3490860967308918e-02
      -1.1202599402355840e-01 9.2560019397120011e-02
      2.5319684218600369e-02 2.7448202564221875e-02
      5.9278726256677926e-02 -1.3881842254313237e-01
      9.0673582523692082e-03 8.9488269779352259e-02
      -3.9849760859997009e-02 -6.7412554200027369e-02
      3.5229240030111138e-02 -4.9268634061921897e-02
      9.9543116174752158e-02 -2.7706508158010231e-02
      2.6513629296205096e-02 2.9016053978845331e-02
      1.3043823746798845e-02 1.8646650638333546e-02
      3.4736534391766646e-02 2.4455546010261646e-03
      5.6459878487093045e-02 6.0560150404550830e-02
      -9.8454710712945884e-02 1.0570277395157794e-04
      -1.0411757437520595e-01 3.8538295043932469e-02
      2.2620669793952219e-01 -4.8422776818909712e-02
      -2.3190942616222371e-02 2.8961797404335007e-02
      -7.2243255529812908e-02 3.7200910843641730e-02
      -1.1430125362847014e-03 1.3899568864357054e-01
      -1.2996174885473040e-02 -9.1122693654056924e-02
      9.2391134652855755e-02 -2.5988798988035730e-02
      -8.0855209600061307e-03 1.1914354135248170e-01
      3.8011955056365204e-02 5.2211018636282320e-03
      6.9605426622276423e-02 -6.9919790598524351e-02
      9.4466279482492810e-02 1.1917172593013960e-01
      -1.7101619830503255e-02 4.9358379689607913e-02
      6.7862749117251431e-02 -4.3543956137587778e-03
      1.1046877988854349e-01 4.5684084370106549e-02
      1.2426824613019276e-01 6.6866795005540075e-02
      5.4870208965797244e-02 8.4624746442460430e-03
      2.3570811692068303e-02 3.6753415735281257e-02
      6.6476056961579211e-02 6.8798115115632809e-03
      -5.0713773444570238e-02 -7.3236327883539369e-03
      -2.9329108146487450e-02 5.9748639283897523e-02
      1.1710428582083699e-02 -5.1304923460139373e-02
      -1.1066731035231765e-02 -9.0407952433056202e-02
      -5.8062524090822534e-02 2.9120747615340087e-02
      -2.9483210553780493e-02 2.7990115217481883e-02
      -2.2674554556770834e-02 1.4996652129822042e-03
      -8.4260188221440782e-02 -1.3591806513960449e-02
      -8.5322789119059814e-02 -1.8263720445916667e-03
      -5.0848258206937336e-02 2.0468968884596074e-02
      -1.4273956466275283e-02 -6.1977125373393081e-02
      -1.7709061874802038e-02 1.8850403573120119e-02
      6.7221596631102692e-02 -5.9917746298791446e-03
      2.6766748982057321e-02 -3.4083353003212323e-02
      -2.4142484356962186e-03 2.2182798424462351e-02
      -6.4609906771816814e-02 3.2434093343514195e-04
      4.4086024359845169e-02 5.5012455416696060e-03
      5.5784603093497177e-02 1.2518499941101868e-01
      1.2347411346498992e-02 1.8347507426682900e-02
      -1.7661734224821070e-02 -1.5054028598105459e-01
      1.5459135330502993e-03 -3.2799597945649607e-02
      3.4608888801684563e-02 3.7747998921323987e-02
      -9.8334753787232457e-02 -5.2044503636727978e-03
      9.9702298316304408e-02 -5.5496933584396882e-03
      -5.6383339768194367e-02 3.0110222660429026e-02
      1.6719851901983277e-02 -3.2575397919158582e-02
      -7.8515507268732257e-02 -3.4007897824116569e-02
      -5.8957937399458302e-02 3.3770551246803254e-02
      2.1922835661574661e-02 9.9402108218622692e-02
      7.3968089792026348e-02 5.8795781198664805e-02
      -7.9674658917724822e-02 -4.4371617329081653e-02
      -9.5446764120312409e-03 1.8563970135971677e-01
      -1.6499260126572809e-02 -3.1761284579525269e-02
      -5.6074460116764577e-02 -4.9391572196763690e-02
      -1.1330359475316586e-01 5.5478191252421531e-02
      2.6464360190538806e-02 -2.1788093826992646e-02
      4.9902590894292942e-02 -1.0595532535295127e-01
      -2.8461435609136779e-02 5.1723614850653771e-02
      -1.8665175157132129e-02 -7.1196917059607387e-02
      2.6045582862477167e-02 -3.5634726768224934e-02
      5.1959601681368740e-02 -6.5950814871456424e-03
      8.3071849057506884e-03 1.3935444525816713e-02
      2.4084637208609118e-03 2.7219175072514951e-02
      4.7278120379084826e-02 7.9603314383436385e-03
      2.8981222465362340e-02 6.6982131594979330e-02
      -7.1846816395026630e-02 -7.2750895868103872e-04
      -8.2502069499883326e-02 4.8999589048130565e-02
      1.7530127911571983e-01 -3.4544729573745214e-02
      -1.5590546447406598e-02 2.6787639159525652e-02
      -9.2265643147720205e-03 1.0572049607839628e-02
      3.6246516008786012e-03 9.7948116842704241e-02
      -8.3298049702152811e-03 -8.0117691268311322e-02
      9.7515102700758874e-02 -2.5493055405742749e-02
      -2.0677433143521742e-02 2.8511309701213780e-02
      3.0661785305108206e-02 -2.8872160238493857e-02
      1.1072645652915478e-01 -4.1147103200823244e-02
      5.7827883440446010e-02 4.0973578210409749e-02
      -2.0688869137559889e-02 3.2120732773026538e-02
      5.1175492187819277e-02 -1.7291455664859838e-02
      6.8091561929869940e-02 1.8199971218222536e-02
      1.7135826245704749e-01 8.6568676144450671e-02
      2.7360573594501069e-02 1.6336386933968210e-02
      -2.8143534091595142e-02 6.0608261393463952e-02
      5.5317077850545265e-02 1.9057966392199022e-02
      -3.1589484641458873e-02 2.2499844962249143e-02
      -1.0728230193194357e-03 8.2908941246703324e-02
      -3.6886580615583405e-03 -2.4089725998702585e-02
      -1.0594862306409884e-02 -5.3394709626791957e-02
      1.4757965701838117e-02 -3.4189426384258997e-03
      -6.6718856458057405e-02 1.0993358644670903e-02
      -3.7848491858018370e-02 2.0885831281679229e-02
      -1.1494716088556756e-02 4.8802406498774133e-03
      -4.6600068862268487e-02 5.1824966865356099e-02
      -6.3789255464547057e-02 3.1664325155820773e-02
      -5.6451516503607781e-02 -4.7018680874678774e-02
      -4.5018779869398812e-02 2.1966379976021987e-02
      4.6001214989018969e-02 -2.3811504117102120e-02
      -2.4535312620421201e-02 -4.2749522259847759e-02
      -8.9494643944235455e-04 2.5188928516574352e-02
      -3.3533865489906792e-02 -1.2618005564876879e-02
      5.2675137152440044e-02 2.7972324766682079e-02
      3.7962757801481818e-02 9.1074104805272685e-02
      -1.2623209643483497e-02 2.9747330215812776e-02
      1.5424463933185690e-02 -9.3278393021991521e-02
      6.1844686545833347e-02 -7.3296472436864390e-03
      8.6213236765930248e-02 1.1785435214229072e-02
      -2.9719657482699436e-02 -4.2587762407315152e-03
      4.8055395844396838e-02 8.6321729892966485e-03
      -7.2029267902199767e-02 2.4596554628446121e-02
      3.0119844821573826e-02 -2.1602414605810080e-02
      -4.5695189048076790e-02 -2.2187366330700002e-02
      -4.4654175302048536e-02 6.9383679970855094e-02
      5.0615680217774288e-02 4.7706658919608243e-02
      7.3888518275953760e-02 2.9103881300463253e-02
      -7.1436419008912289e-02 -6.5028610992717922e-02
      -2.6613822181145295e-02 1.3414357856012121e-01
      -2.6820638796832632e-02 9.2043534925494181e-03
      -8.0373958493506259e-02 -3.4062905271863252e-02
      -6.3301093281567175e-02 1.0309095005126582e-02
      6.8994176491566944e-02 -4.8520576139703890e-02
      4.1311364109553966e-02 -9.7771338634767016e-02
      -1.3355414094628100e-02 4.9885800422829144e-03
      -1.3635914776795035e-02 -2.8257394641885852e-02
      1.8375803405052862e-02 -6.0558136840112228e-02
      -1.4742958877046124e-02 5.9233541860309172e-02
      4.8121566600391200e-02 9.2700523419867783e-03
      -4.5197429127266910e-02 1.9605675426013016e-02
      1.8109491040083379e-02 -1.2108255983754743e-02
      -1.8526834064508300e-02 4.1091843114408076e-02
      -3.3924090496532298e-02 1.7256561163036505e-02
      -5.6085532722415045e-02 6.2720035523221085e-02
      9.3236530661174224e-02 -2.0139229764965967e-02
      -7.8173722767760408e-03 2.1509687229797229e-02
      -1.7024770943647682e-02 9.2253482501372241e-04
      -7.8322796006081320e-03 5.4338986167913501e-02
      9.2905876957779902e-04 1.2050790359102490e-02
      1.3026107260839032e-01 2.3997856906501240e-02
      -1.3941082600766187e-02 -6.7123496234036240e-02
      -3.5829657997733688e-02 9.2443047414930441e-03
      3.4390953791986457e-02 2.8082304781061052e-03
      1.2643408846316536e-02 -4.3667357175844246e-02
      3.0247344812956836e-02 -2.0279935172917245e-02
      6.2655006486580359e-02 -4.1482189012378025e-02
      -9.9957083787521927e-04 -8.4027894412296994e-03
      1.4682495258727574e-01 1.6677990843869856e-02
      -4.6773343314858939e-02 -3.5597543378295016e-02
      3.1587804743979118e-02 1.5138765451706530e-02
      3.6119818099306290e-02 3.7214396960771300e-02
      3.0786684469623691e-03 4.1940847760214381e-02
      1.6250971427125324e-02 3.2120797906756933e-02
      -1.8840372423344857e-02 -8.4453826586331510e-03
      -3.3976369160110792e-02 2.9905396611338106e-02
      4.8160269296201215e-02 -5.6969212797774456e-02
      -7.0306631046375828e-02 -4.1935062304637597e-03
      -5.0310203880652741e-03 -2.3339655864887360e-02
      5.7301398721051292e-02 -5.0972429644828690e-02
      1.1000785517133608e-03 5.5152912074513387e-02
      -5.6282565295716749e-02 4.7786880562831870e-03
      -7.1243172004757063e-02 -6.3583635148346876e-03
      9.2919252922023399e-03 2.2389705591074715e-03
      7.2288540162203929e-02 -8.8791388802379901e-03
      -6.0330306436777899e-02 2.8843320232066493e-02
      -4.3252704410768365e-03 2.2707077522809781e-02
      7.3582754601344011e-03 -4.7968105170354221e-02
      1.9247102745587462e-02 4.3957773748919356e-02
      2.0128417491927536e-02 -2.5554385994085126e-03
      3.9748224587960265e-04 4.4208379895394031e-03
      6.4188947452353512e-02 4.7391184039815223e-02
      6.1927205558207375e-02 1.5181363815168358e-02
      1.0332038508324709e-01 -4.8310612221568031e-02
      5.8830060582512035e-02 -7.5687571213088584e-02
      -1.8960499112433932e-02 1.1522076947449720e-03
      -7.3437485611156247e-02 4.2066744209512535e-03
      -3.6893839765211461e-02 -5.1119208952212898e-02
      -1.7108680012837128e-02 2.8219095211022739e-04
      2.1589942368640338e-02 4.0334853752571370e-02
      2.9138160267029017e-02 -7.7466503008339488e-02
      -3.8939663293430397e-02 -4.8659723133887278e-02
      -1.2356379212466937e-02 -4.3628785738199477e-02
      -3.5860167180000999e-02 -1.5680642415988641e-03
      -2.2231174008647291e-03 -1.6535350364014701e-02
      -9.9912200046834987e-02 3.2793590432781738e-02
      -9.9205942567900038e-03 -3.4950374406102401e-02
      4.8170614965032131e-02 -5.6507639197254267e-02
      7.1369461350403772e-03 -2.7407927416589806e-02
      6.8068166595888656e-03 -5.7468753104063498e-02
      3.5653569434726431e-02 1.0244585104433103e-02
      -5.0702959322086655e-02 -8.1963898086539297e-02
      -4.1182420936775016e-02 4.1692723792070258e-02
      4.5099342134369759e-02 3.7416912630247587e-02
      -7.1961337476046300e-02 4.2194684248346041e-02
      -1.7050723884639071e-02 -2.1630022373097073e-02
      -2.0677057828083927e-02 1.3176215833418036e-02
      3.1971762109426122e-02 -1.7008765510421693e-02
      -3.5460429100744921e-02 5.6026320020750855e-03
      -5.1744301212705117e-02 -5.9963213333260032e-02
      -7.3435744525785886e-03 -2.0502994024260625e-02
      -2.1312954804712129e-02 -1.1615025104912970e-02
      -1.0725500934497414e-02 -2.1793244041940569e-02
      -3.8975823260910529e-02 8.4016753406038008e-02
      1.0531020727326962e-01 4.9481916104665118e-02
      -1.2682443071209023e-02 -8.5384377163475300e-02
      -4.1289514357145091e-02 5.1544230501695168e-02
      -1.6075289273405787e-02 3.9380435223498995e-02
      3.4432000070911523e-04 -7.1585439151960209e-02
      9.3281637626932354e-02 -7.2342182996743776e-02
      7.3805987252502217e-02 -1.3109273219502338e-02
      -3.7331575423068898e-02 -3.8232165599252889e-02
      7.8734546324875823e-02 -4.7932221777216726e-02
      -7.7234319259349940e-02 -5.3992904350708547e-02
      6.0377068222654887e-02 -6.5694076846450475e-03
      5.8238325635557317e-03 3.5501332473290126e-02
      2.1786799978092165e-02 5.6636923254329681e-02
      2.0617096826106577e-02 -3.1000776478446936e-02
      -3.5411251847028063e-02 -2.0607231834540041e-02
      -8.0665217398793329e-02 5.4650679006906192e-02
      4.4736818780963403e-02 -6.4645863558624533e-02
      -6.1223004055635126e-02 -4.5109618296691936e-03
      1.4237611411644714e-02 -4.5419294932986437e-02
      5.2315637621796106e-02 -5.0224979589304060e-02
      1.9808129106795341e-02 5.0591992599176253e-02
      -3.7368521451335193e-02 -6.0912897008396510e-04
      -6.4597805588219231e-02 1.3062960079954477e-02
      3.8364797575893179e-02 -3.3231268914867593e-02
      6.8164191581330372e-02 1.4120564483358332e-03
      -6.2339424143399748e-02 5.3247877895297661e-02
      3.4821918030432539e-02 1.8941782028512658e-02
      4.8762350626238633e-02 -4.8911681511934334e-02
      1.5328790209089168e-02 7.8607411102466246e-02
      2.6322911714075771e-03 -4.0803574894003387e-02
      -1.6258458556927423e-03 -3.2465743673230268e-02
      5.4267646457657109e-02 1.4140165672895674e-01
      5.4428464262772459e-02 7.4993507301189934e-04
      4.4767048462964990e-02 -8.4189757313999219e-02
      6.7328702523793707e-02 -1.0116916748865340e-01
      -6.0392303862623807e-02 -2.3251085044663552e-02
      -4.2036728560682725e-02 7.0988304594794644e-03
      -5.4371534861116899e-02 -4.4636064814931362e-02
      2.0278919412341622e-03 3.2866304266046739e-02
      7.5268700862520702e-02 4.5973005745828903e-03
      9.3160401976499149e-03 -1.1849225080119183e-01
      -8.9970452183975438e-02 -7.3908063688175901e-02
      3.0529004587837071e-03 -7.6764482971993656e-03
      -4.5230161977524989e-02 -4.8670674311199570e-02
      3.5332168839162792e-02 -3.9391290622591703e-02
      -7.9280201390872884e-02 7.6260743759461500e-02
      4.3859956362742772e-02 -4.8093909790509752e-02
      4.0379387909135075e-02 -3.2587646763687153e-02
      -7.9109942483727418e-03 1.6812074073742492e-03
      1.6159297493260952e-02 -6.6506648859819800e-02
      6.8024199647695821e-02 1.6058640558525548e-02
      -5.2833398543932951e-02 -6.5563318178744390e-02
      -3.6310618265429459e-02 3.6535325690758687e-02
      6.4135932846491484e-03 3.3876041024293667e-02
      -3.4882293677047406e-02 4.2426855118434602e-02
      -2.3904278011012425e-02 -2.1184197188156409e-02
      -2.4612528571391443e-02 -2.9967938124974516e-02
      5.7733019582680747e-02 -2.8584412908287692e-02
      -2.2521244040296293e-02 -2.2468404320317645e-02
      -1.3563361183927167e-01 -1.0167741930029037e-01
      1.7290414401426108e-02 -4.6597548722883311e-02
      -8.0766658435898174e-04 -1.4518480647379957e-02
      6.4931842819242486e-03 -7.2326252755471721e-02
      -4.2174073574749824e-02 6.2539143550384077e-02
      6.7110578266250123e-02 2.9193469234751459e-03
      5.7549762622221591e-03 -7.6025130034983929e-02
      -4.0751847582126438e-02 2.4040366407819945e-02
      2.5589772245251255e-03 -1.1895753878433599e-03
      -1.1004457096932960e-02 -8.9263148793947436e-02
      9.8012610582964163e-02 -6.2840143346034619e-02
      8.3551504224834247e-02 7.6117286845515759e-03
      -3.3722873869975668e-02 -2.6698779148416077e-02
      7.1931671178759302e-02 -4.2438537341486407e-02
      -8.5376000220892465e-02 -6.2360163072834623e-02
      5.1183892805891487e-02 -7.7574776906024594e-03
      5.2458871298302701e-03 6.8568541692953051e-03
      2.0824972017114508e-02 6.1616241057936262e-02
      6.4713622306669921e-03 -5.5492597992446449e-02
      -2.9595747073851188e-02 -2.4692956198071533e-02
      -6.5648674230758514e-02 5.5384233340009123e-02
      -1.5835407296166146e-03 -6.7681787743265248e-02
      -4.0096230786853017e-02 2.6323242306387898e-02
      1.6747032223665675e-02 -4.4429692195412838e-02
      5.4300078756635652e-02 -6.9230818798005231e-02
      2.2379458649240184e-02 8.9377052004697227e-02
      -5.1979554453098736e-02 -2.1752145038515528e-02
      -5.9904580504539624e-02 4.4349076767290808e-02
      5.4556580434037431e-02 -3.0988186757220336e-02
      8.3135114716352210e-02 7.8892791551508565e-03
      -8.1664505932767223e-02 5.1401908986113694e-02
      5.0776553610526881e-02 2.1845666591740878e-02
      9.3193478898222548e-02 -2.7330534376239012e-02
      8.7343365999166117e-03 8.8008520210858213e-02
      5.7791864085443550e-03 -5.3526181671065189e-02
      2.6760865355487707e-02 -2.3882105634253199e-02
      5.0595349133173276e-02 1.3315348175604189e-01
      1.9467171197167989e-02 1.6322993294555277e-02
      1.2886324984097225e-02 -8.2492287626725766e-02
      6.2297056653301465e-02 -6.9746658043433954e-02
      -6.9640959402963873e-02 -2.0474581000051992e-02
      -1.8594039239202907e-02 1.6569651252780603e-02
      -6.7943144536802072e-02 -2.6490121660010781e-02
      1.6868403605900320e-02 5.5448316526580700e-02
      5.9714362527594649e-02 -4.3792202861457005e-03
      2.8824986687373461e-02 -1.2427303240575965e-01
      -8.3210530997378351e-02 -8.5111040772810759e-02
      1.6204227349719099e-02 -1.2851910307349126e-02
      -3.7093718437265916e-02 -4.6237068576746844e-02
      2.3205164974813827e-02 -5.5738309474348748e-02
      -5.3862562681686377e-02 8.3897104024728067e-02
      3.4669990039847581e-02 -1.4826138481078851e-02
      3.0631130633603600e-02 7.0672226418742427e-03
      -5.9626398107278300e-03 -2.4801906557315135e-03
      2.3590172110613261e-02 -6.2108504940619876e-02
      4.3097178455088370e-02 -3.2036357545629238e-02
      -2.7028157033577863e-02 -7.1363566586486002e-02
      -1.3622072406615698e-02 2.7085817012675754e-02
      -1.7585528520901655e-02 4.7765414971817466e-02
      -1.0537911702113765e-02 2.6398779768648267e-02
      -3.2183116842523896e-02 -2.6671961748948037e-02
      -7.6076250970627240e-03 -3.6921507702512034e-02
      6.4877998770914269e-02 -1.9621371947701569e-02
      -3.1390425615207815e-02 -1.5394177107964757e-02
      -1.4384728210934972e-01 -1.1935139121898405e-01
      -7.3702984572483164e-03 -5.4657570218746267e-02
      -1.2447114025025900e-02 1.7512537824807756e-03
      -2.3526589110395832e-02 -8.0434978740951887e-02
      -5.5517364256062192e-02 5.2545124882895583e-03
      4.7431057730924334e-02 -1.5756765673175972e-02
      1.4305874942137860e-02 -3.2956979163178420e-02
      -5.8811596214114130e-02 6.3480298714430144e-02
      -1.3029982617368019e-02 -3.3734133554684208e-02
      -4.3746354867518621e-02 -5.8001853964069802e-02
      1.2007783690626860e-01 -4.2097507611098962e-02
      3.0200844964765879e-02 -4.5344898325365632e-02
      -4.4903015184568393e-02 -8.9067031364368263e-02
      -3.5925906189245266e-02 -1.4718023472003648e-02
      1.4782196300293293e-02 -4.4823367720937916e-02
      2.9939533784284929e-02 -1.4334837410563508e-02
      4.4202118255033014e-02 2.3514578283733756e-02
      4.8129952126593080e-02 -4.2461223696224647e-02
      9.7757385597364563e-02 -5.6208429466493230e-02
      1.9422017798819951e-02 6.2299652596348946e-02
      -5.2626950114397372e-02 6.4910693470956390e-02
      6.1499534744728891e-02 -6.1320983950594654e-02
      -2.5200020166045740e-02 6.7344514640704317e-02
      3.7172883132096490e-02 7.3396572328012161e-04
      1.4144537902880228e-01 -9.2731364432863585e-03
      1.0819629813422701e-03 1.2208356155547921e-01
      -1.0671028155238181e-01 -1.4065131710145836e-02
      5.8295720091623374e-03 1.6338547226414377e-01
      -2.9291894489799106e-02 7.4896692649101563e-03
      5.6317773255122591e-02 -3.6188164770210592e-02
      -8.5475213382306112e-02 -2.8860900633919013e-02
      4.9115700341682743e-02 -4.2038200260016083e-02
      1.5028793771156915e-02 1.1134839939839668e-02
      3.6982847732255804e-02 -4.0687503715423595e-02
      7.0655310651791078e-02 -2.8814602937469888e-02
      3.1929617086624291e-02 1.7834052974397097e-02
      -6.8897515177128485e-02 8.9561919449612892e-02
      4.8066169978846364e-02 1.7845307042854520e-02
      6.6168463230280167e-02 -8.4659291382637933e-02
      7.3479396952748077e-02 -7.6838851969677630e-02
      -5.2827910960645152e-02 -9.6013356392634905e-02
      7.6550305586444078e-03 -3.2923834638268840e-02
      1.5403884074573784e-04 -3.8942354575048271e-02
      1.9986606956713528e-02 -2.6053027616418853e-02
      5.7345575391500023e-02 -3.3976261293458862e-02
      3.9830264689310967e-02 2.9962810562753593e-03
      -7.6825635850476429e-02 -4.9580021540347782e-02
      6.4355036027125848e-02 -1.1789899113694748e-02
      4.0091737261465374e-03 2.4616307966706656e-02
      2.0559179945679796e-03 -2.2557244916468849e-02
      -5.1394887393111759e-02 1.9954840078616386e-02
      1.6994591385289512e-02 -2.8906205737490660e-02
      -4.2483536341196754e-02 -1.8264870315751188e-02
      -3.3553700189246451e-02 -4.1820873118971472e-06
      -1.0550168806935562e-02 -2.6370079546783307e-02
      -1.4506793994925530e-03 -6.9124864365233546e-02
      -3.1483319454154599e-02 -1.5985512595182296e-02
      -8.9099336533366560e-02 -5.6980869529689650e-02
      -6.3361610458634629e-02 -2.7826413730195093e-02
      5.1913191689799219e-03 3.9402039548095222e-02
      -1.0626518722611822e-01 -1.3175252509033316e-02
      -8.5265761192945252e-02 -1.1403949598391534e-01
      -4.1534167305263409e-02 5.6478059678341568e-02
      -4.5835336080323121e-02 -5.1552821488211664e-02
      -1.2490650779082593e-01 -1.9332448087152999e-02
      3.2750304232673751e-03 4.1474229561104616e-02
      -1.6962663060018014e-02 -1.3454183774600054e-02
      -4.9086694092691292e-02 -5.4720799670508052e-03
      -4.2520151712307989e-02 8.2118793935585618e-02
      8.6036740791723409e-03 4.2176156102881862e-02
      -2.6117486116208150e-02 -5.4131733278085750e-02
      6.5759050791468168e-02 -7.4582991240453242e-02
      1.1139513860244772e-01 -8.8198689728593863e-02
      -6.0267890349967037e-03 -5.6551306255751950e-02
      2.9564101204706413e-03 4.1730004859927422e-02
      4.3069272109058088e-02 -1.4772631735907329e-02
      1.8096712988713085e-02 4.6308592582830051e-02
      8.4702449587044884e-02 3.7322360879610723e-02
      -8.6590307873192579e-02 -3.8202310703136710e-03
      -2.8996898625453679e-02 3.9189009398090370e-02
      -3.4930702775616697e-02 -4.2122144342506260e-02
      -7.9858476057392339e-02 2.0760926976073960e-02
      -5.9641834006790406e-02 -3.7773137288277226e-03
      -2.9232099151357879e-02 -5.9175058496259467e-02
      -2.1370655124529535e-02 1.2388080064290530e-02
      1.4709186073770957e-02 -5.6876424744761959e-03
      -4.5443483551215913e-02 -3.6628606546061922e-03
      -1.0212289126896612e-01 1.5953030805013309e-02
      3.3960727412888803e-02 -5.4841172882502537e-02
      7.7650027228996820e-03 4.1957131820690607e-02
      -7.7376550344300785e-02 -2.6633766787070284e-02
      -1.6847818992043125e-02 -4.0297534936587160e-03
      -3.0806749962233107e-02 -2.0392585429847020e-02
      6.1312566650426989e-02 -5.0570521645077133e-03
      5.8132015676125241e-02 -2.8095256252394625e-02
      2.8992897179080327e-02 -2.4303999583020583e-02
      -2.8701167308706768e-02 1.6555959284640320e-02
      1.1215702640264752e-02 2.6168915311134664e-02
      7.8238921647084805e-02 -2.8865881962190858e-02
      1.4765531044825411e-02 -1.3939969345109098e-02
      -3.8670442093268871e-02 5.9150495330329789e-02
      1.6950421778366118e-02 -1.7466026696277569e-02
      6.5771399355213006e-02 3.1564172883252410e-02
      -1.8179376511073476e-02 6.0407786002727053e-02
      -2.5079830757528000e-02 4.0015629044036695e-02
      -6.2526183860995233e-02 3.3966961983983003e-02
      -4.6219065732321034e-02 -1.3914360344440610e-02
      5.6998637470726185e-02 3.8934347565722532e-02
      -1.5023634199741979e-02 3.8791971957048692e-02
      5.6776724008125723e-02 -6.3433583618343239e-02
      2.5951727694266999e-02 8.4703921740897532e-04
      -2.8821947003002082e-02 -1.1953637210630958e-02
      -6.6253483200247910e-03 -1.0609995072411391e-01
      -5.3449185922402689e-04 -1.0342066284868747e-02
      -1.1157073499861798e-02 -3.4011294518498277e-02
      -5.0085264094215619e-02 7.6640700554856875e-02
      3.7096933635666990e-02 7.1694568839201656e-03
      3.7779059829880605e-02 2.2657681082376892e-02
      -2.8185006721575867e-02 -5.4335100814773239e-02
      2.4996529396979141e-02 -6.8942719573518413e-02
      6.9354112962348877e-02 -2.5148578292446003e-02
      -5.3107490901697418e-02 7.4208349077506869e-02
      2.4972026273196064e-02 -1.6600868020936802e-02
      -4.1154103090820446e-03 1.8532727080683885e-02
      -1.8066266572055414e-02 -2.0448156165362316e-02
      -6.7045836989677685e-02 4.3132229057631401e-02
      1.0773666580429322e-01 -1.1068100084444249e-02
      -7.1114501098886507e-02 8.7052513802098386e-02
      -4.1235545659964061e-02 -1.9332872645283383e-02
      2.1093674165472698e-02 1.5122748214986639e-03
      5.5131632202825902e-02 3.0935378494923962e-02
      6.6313568117374192e-03 -2.0875883992466281e-02
      -3.2800191469169335e-02 -1.2105794590289364e-02
      5.8830189631733670e-02 2.1359145705443549e-03
      -1.7411595330838418e-02 -1.2681727141778104e-01
      7.0985791319143648e-02 -1.1752935487685959e-01
      9.0730681261256871e-02 -7.8050546854581307e-02
      -1.9010650782421510e-02 -1.3244283431877293e-01
      -1.2618778164895915e-02 -5.5343106448938932e-03
      5.3714413946580025e-02 2.6870828221252929e-02
      -4.4187223839446350e-02 3.6406010491853553e-02
      1.3052759941019040e-01 3.7829890197914696e-02
      -1.9718014204143108e-01 -1.1236316269150847e-02
      1.9016940184580302e-03 5.6543442335240258e-02
      -1.0084111021968269e-01 -7.1057767693489496e-02
      -8.3190332797983157e-02 7.8374719891978709e-02
      -8.7208540744204532e-02 -6.0118488607888092e-02
      -4.0906357627652344e-02 -3.5792671111897489e-02
      8.2071150071179200e-03 3.8520564010803691e-02
      7.7171182511058343e-03 -6.8502259459695701e-05
      -1.0964172863025033e-01 -2.3524387337183889e-02
      -1.0520191546128638e-01 -9.0361207745653736e-03
      6.7837236855069066e-02 -8.7356721023413964e-02
      1.1866089975967576e-03 3.6569489581421984e-02
      -4.8294552404155894e-02 -4.3845321376138953e-02
      -6.8598429562995222e-02 -7.1387072415273339e-02
      -3.3138988448254095e-02 -5.4105584020528496e-03
      1.7783719721896369e-02 9.3756329383918209e-03
      6.6376955111348196e-02 -4.1166343776128898e-02
      5.3193126114261066e-02 -7.2353337966955225e-04
      9.4474347210401211e-02 3.3090331890458576e-02
      4.2477417532900963e-03 9.3436376839051108e-02
      5.5076659472111308e-02 -1.4368940053847931e-01
      4.2899961933120206e-02 -7.5952841512540560e-04
      2.4526275570733929e-02 1.3207034473125107e-01
      -8.7579958134534723e-03 -2.5261346909836700e-02
      9.1849700949941833e-03 1.3108846749959739e-02
      1.0047424141859487e-03 1.0569064442401528e-01
      -5.6625593787854721e-02 4.4176151803597505e-02
      -2.6359291741700427e-02 3.8067614526985018e-02
      -4.8385175635616479e-02 1.4659833680272183e-02
      6.8208410465348451e-02 7.5548739885043292e-02
      1.6068384127550281e-02 7.2375883057990767e-02
      6.7412071797993495e-02 -1.2577675543676597e-01
      1.4563807211803059e-02 -2.1750228150980069e-02
      -4.7085182152861615e-02 -5.3138486630299506e-02
      6.3025072367553442e-03 -1.9062326143926017e-01
      2.0813772253576086e-03 -2.2572743139180815e-02
      -3.4995070763579210e-02 -2.9469768757948652e-02
      5.8053241048411829e-02 1.8025314260472700e-02
      1.2119650983375242e-01 3.0821556329176696e-02
      6.9691890944307442e-03 1.1812376735476467e-01
      -3.3237249982165311e-02 -6.9906972708072126e-02
      3.1557026919497889e-02 -7.5036725687787617e-02
      1.0259743850991203e-01 4.7230197797800723e-02
      -7.0086344270571491e-02 1.0877361524045871e-01
      2.1883772505454813e-02 -8.5346723986848647e-03
      -2.6986252477349752e-02 6.8124600757352659e-04
      2.9755817494330324e-02 -3.6437613591587321e-02
      -3.2496736458744714e-02 5.7233766258113800e-02
      2.3549258397273032e-01 3.2447235228566657e-02
      -3.1159993336438457e-02 9.7524635553658146e-02
      -8.1080707356947002e-02 -1.0556371887828510e-03
      3.4107863165490054e-02 -2.7930927447107790e-02
      6.0810204570513074e-02 4.5226587797672760e-02
      -1.8754734824903314e-02 -6.8361469716502019e-02
      -6.4767255119721867e-02 4.4441682015200507e-03
      5.1081386896981065e-02 -3.0629061083584042e-02
      2.2631927061653144e-02 -1.1357171763571508e-01
      4.1365503727413870e-02 -1.1158236292473153e-01
      4.9570822691993990e-02 -9.4960528344371048e-02
      -1.1180749679511215e-03 -1.2948523766330455e-01
      5.0732862715823410e-05 -4.6569190201599331e-02
      5.6891785058729688e-02 2.5744222759017079e-02
      -4.0297731854055240e-02 4.5698081978738691e-03
      1.3734751887838192e-01 3.7892810112636420e-02
      -1.9523471486603422e-01 -3.1820434166236485e-02
      3.5357506437129239e-02 3.6193723552948927e-02
      -1.0757803405828421e-01 -9.0839499725710121e-02
      -6.5373705411487390e-02 4.7723986130955479e-02
      -7.5994108447138581e-02 -6.1613509316509885e-02
      -3.2684999160464114e-02 3.5318654283762619e-03
      2.7280857509974311e-02 5.6445207420238175e-02
      2.6897751811569025e-02 6.6774420941894163e-03
      -1.1904643657448717e-01 1.0579943952292312e-02
      -6.9077242828367649e-02 -3.1427764239273716e-02
      9.4627582087191853e-02 -7.9377938102632842e-02
      1.8066891258502429e-02 6.4413609398995167e-02
      -5.8297888761022910e-02 -5.8402902820758662e-02
      -8.6761952792745831e-02 -5.6936970637432138e-02
      -1.1062478356814259e-02 -2.2124409549325978e-03
      7.2817859483633100e-05 -1.1261559605028570e-02
      2.8482435554238020e-02 -4.4332141894393565e-02
      2.0643593161543520e-02 2.1014796150679388e-02
      1.7680650856523833e-01 4.0449466611271502e-03
      1.2218907206616978e-02 1.0082649196210855e-01
      4.2185768619309623e-02 -1.7709651184194039e-01
      7.8665298870719144e-02 4.2982180385098392e-02
      5.9885233613330736e-02 1.2350282383429048e-01
      -2.5772214446847127e-02 -2.4089825100447944e-02
      1.9011633906156417e-02 5.3753706773081470e-03
      -1.4395300453178427e-02 9.2029117587233186e-02
      -2.5096849881617055e-02 8.6965860581646407e-03
      -4.0361396479953408e-03 5.1126693640300543e-02
      -3.3266041971796653e-02 2.0387635139128670e-03
      5.0539194273209798e-02 7.8909006874655352e-02
      8.7090625775914556e-03 4.0265699402434359e-02
      6.2038315771800599e-02 -1.2048024161615406e-01
      2.6100306745111379e-02 -2.8072587074579287e-02
      -3.7923269933602677e-02 -6.1749253463396062e-02
      2.4411350849640252e-02 -2.0402715071802768e-01
      -3.2774270395243339e-02 -2.8300208252240326e-02
      -6.4947021754657636e-02 1.9479726895372637e-03
      7.3207825765880877e-02 1.7310819012152066e-03
      1.2599112053258910e-01 5.3154981948626126e-02
      -2.7800404222816433e-02 1.3190545273783733e-01
      -2.4328438957887111e-02 -5.1116056778837259e-02
      6.0186755164387366e-03 -6.5184857057762058e-02
      7.8549978064539325e-02 8.3128545130041129e-02
      -5.3180136479170095e-02 1.0858349311019576e-01
      -5.5230954501238796e-03 8.9260544814434104e-03
      -4.5987971799102356e-02 -1.3848617048338141e-02
      1.1751466890181918e-02 -3.3140608241715150e-02
      -4.4693259038457488e-03 2.4747852653584944e-02
      2.3187811455090104e-01 6.9790927067682945e-02
      -3.0251013314564847e-02 9.4066876156612300e-02
      -6.6510356925110203e-02 -2.2554855835076270e-03
      1.1140889182445164e-02 -2.8846473321996382e-02
      2.5893576129222124e-02 4.3198673472030054e-02
      -3.8500095524620900e-02 -4.7714783414140184e-02
      -6.4933907237429686e-02 1.2317357035142518e-02
      4.5212014335824648e-02 -1.1771644931254405e-02
      3.1149818547453811e-02 -1.6467210102069776e-02
      3.0486210582294219e-02 -9.6047935955653890e-02
      9.3199680316685685e-02 -1.2933792530992561e-01
      1.3743634690842159e-02 -3.1678815889564373e-02
      2.6056659100617170e-02 -8.6989089602188902e-02
      6.9505558221201663e-02 3.1871814318565402e-02
      4.5384689579854968e-02 -2.1583474435417718e-02
      1.7146985691528183e-01 5.0404198896717961e-02
      -9.5314441088561866e-02 -8.8842891263583995e-03
      -8.0066960937116329e-03 5.1352351147977038e-02
      -3.7197142571918168e-02 -5.0119425232757336e-02
      7.9285736130857327e-03 3.6501796610135147e-02
      -5.7658797217974074e-02 -1.0645017271423416e-02
      -2.7174913768750444e-02 4.0225256027231222e-03
      4.3864442451716654e-02 2.7839766406160555e-02
      -1.2666663330698038e-02 -1.2061576639406799e-02
      -1.2866195180880818e-01 8.5671095199992053e-02
      -4.3770520606943059e-02 6.1583550452766322e-03
      8.5587468942105879e-02 -4.1041570616041648e-02
      -3.4247886607276816e-03 1.3398594235184444e-01
      -2.3319482656651628e-02 -9.5336557603712763e-02
      -1.1341678679680589e-01 1.9283605709207924e-02
      -1.3402368818963718e-02 6.9599537250460669e-02
      4.9445725512519342e-02 -5.2794163559969950e-02
      -4.5677660705957655e-02 -5.7060923005334802e-02
      8.2206554937430914e-04 5.7915343771192382e-02
      2.3201407084547770e-01 7.5627331817443707e-03
      1.6747180915301942e-02 8.8307539719689618e-02
      6.3659852154577413e-03 -8.0797809795346523e-02
      1.3817844970403162e-01 7.5284300015754799e-02
      6.0308932979212450e-02 1.1721797075816553e-04
      -2.6838404022062671e-02 1.9123853446428744e-02
      5.1281106956574139e-02 -2.0708932386379265e-02
      -4.3579385218957843e-02 1.0794987334551730e-01
      2.6835562843943148e-02 -5.9113571657820198e-02
      -1.8468091562393468e-02 6.2034241275475466e-02
      -3.9534261915028596e-02 1.3210255848155441e-02
      -3.6903098697769088e-02 2.9977668843694197e-02
      -4.0837444344641656e-02 1.4524834475604439e-03
      1.0427918826530222e-01 -4.1002894906765036e-02
      2.8946853734788339e-02 -1.8564328379746833e-02
      -2.8459164116987429e-02 -8.2447096398541850e-02
      7.1619218208823160e-03 -5.5507905188276210e-02
      -6.2759661917014348e-02 -1.7217684117132016e-02
      -6.2547148557162230e-02 7.2204030659931010e-03
      8.6151934188872681e-02 1.5814410503812643e-03
      1.4194478704201310e-01 9.6391830697217545e-02
      -9.1560839137866563e-03 4.0834515717763011e-02
      2.2849768436005700e-02 -8.3585805019791987e-03
      -2.0729926294125681e-02 -8.6361655148357502e-02
      6.3979608056708770e-02 6.5366917628179172e-02
      2.7251184418072383e-02 8.6351915257141892e-02
      2.4611550711528936e-02 2.0352950418692183e-02
      -4.8353759675091153e-02 -2.8299819559775220e-02
      -1.2604417583355401e-03 -1.7092924614149813e-02
      1.5575803514621119e-02 -1.4723211375973934e-02
      1.4103647168382855e-01 7.9217038428508704e-02
      -5.9737484034489842e-02 1.1379220463460550e-01
      5.1487755618265005e-02 5.1712966525533706e-02
      3.4023393579880427e-03 -3.4870056591710975e-03
      -8.7415140238347386e-02 7.7830093459480471e-02
      -7.3452437114742183e-02 4.9595915394032360e-02
      -6.8287714177053427e-02 -6.7593586628504892e-04
      6.5829348949524108e-02 7.6017966722872849e-03
      -2.7452181708131792e-02 5.5270478403502958e-02
      6.8365386175830933e-02 -8.3192210245303697e-02
      1.1379773077147969e-01 -1.0213977543690142e-01
      2.7839546848209853e-02 3.8616978660645007e-02
      4.9658697354631291e-02 -4.3201585483048338e-02
      4.0482800337592016e-02 5.7305313605152475e-03
      9.5482056688905040e-02 3.2734705382785667e-02
      1.4115949220578958e-01 3.5441807297832438e-02
      -4.9412243558832454e-02 2.5126324385418924e-03
      -2.1896762033848639e-02 5.1992589084584734e-02
      3.0609895152175652e-02 -3.2066572324954655e-02
      -1.0329178190426946e-02 3.6596894347243308e-02
      -5.5613681832895077e-02 1.3154777474789936e-02
      -3.2099805979608591e-02 -3.4433565411436169e-02
      2.8712777628655303e-02 -3.2683337180877965e-02
      -7.5531579365409940e-02 -2.2620296908280057e-02
      -9.9706559452788376e-02 6.7031987242762089e-02
      -3.7518618403149254e-02 2.8016309202423702e-02
      2.0393887018771268e-03 -1.0256186897226198e-02
      -2.2080194460217452e-02 1.0898845855904005e-01
      -7.6042848506013361e-03 -4.5233408875433714e-02
      -7.6954597239382277e-02 -2.9510366445502007e-03
      -4.1287394547287779e-04 5.0235641573679587e-02
      5.9521931110592195e-02 -4.1523538250194073e-02
      -1.7275566893781371e-02 -7.1575289207184048e-02
      3.2605066977783266e-02 4.8550617477850645e-02
      1.4397133032316708e-01 2.8053123789323148e-02
      2.9349148850678053e-03 8.2926509622264916e-02
      1.0493368597675920e-02 3.0638769961751858e-02
      7.2467468452630177e-02 -2.9200354691259331e-03
      -1.6855404128673961e-02 -9.0946724120037459e-02
      -3.3507989424413472e-02 1.5355171879642755e-02
      3.0314485088807738e-02 7.1521748928421560e-03
      -8.8400032957203806e-02 8.5130457665644088e-02
      6.0962988597584332e-02 -1.9012003151820608e-02
      -3.1149026313042040e-02 4.6450188201115919e-02
      -6.7192900888914395e-03 2.8232109517339846e-02
      -5.9942708090739538e-02 1.6613781718448406e-02
      -7.9551850055143203e-02 8.4732134840474638e-03
      7.7635936429660823e-02 4.1377116148987279e-02
      5.1758768702806199e-02 2.6117422775631088e-02
      -6.5518835656190974e-02 -6.5197729933961418e-02
      -1.4498060676975242e-02 4.8748182346217306e-02
      1.1478081933463486e-02 -2.0167885311648166e-02
      -2.7747257765949242e-02 -3.4855606683078300e-02
      4.1803130603414618e-02 4.2064445964571012e-02
      9.6177763944459524e-02 8.9780407686736091e-02
      4.5523888197941779e-02 -3.1434486115617714e-02
      3.1180175338672057e-02 2.1692636041465759e-02
      -3.3876391706922256e-02 -7.0363860987482985e-02
      7.4285245921118695e-02 6.6950715232561332e-03
      4.7465629293108567e-02 4.1876938605777687e-02
      1.1169804270072256e-02 1.2670527863963893e-02
      1.2943886470730344e-02 -1.0121378104605182e-02
      4.2945659074872886e-03 -3.3962915398474014e-02
      2.6536779533593555e-02 3.5787737847165615e-02
      5.0940862121684749e-02 2.7784264118448525e-02
      -5.0904453264341842e-02 1.2872571096709334e-01
      1.4950971096074570e-01 1.1206885532632289e-02
      2.5883085449614245e-02 3.2112118861776867e-02
      -5.2717499433578709e-02 8.3750507968018736e-02
      -1.8547904409131233e-02 1.0112524645805325e-01
      -1.9295700870279792e-02 -7.8647875163720141e-02
      6.9364070939950992e-02 -3.8901157286328009e-02
      -6.2318963897480505e-02 8.6813584739719188e-02
      6.1842847793734147e-02 -1.0038409636767892e-02
      8.5778782515152627e-02 -6.1297012177802326e-02
      6.3178437714650787e-02 6.3927383315730280e-02
      2.7479757157715640e-02 -3.7527995018269478e-02
      4.1899901059962746e-02 1.2124400438156518e-02
      7.3585614277623418e-02 5.3928135929085581e-02
      9.5238661986707399e-02 1.3656761663162561e-02
      -2.9737015060735318e-02 7.0720382855125894e-03
      3.5483295224597762e-02 3.8623291827121257e-02
      3.6294465703384030e-02 -1.4165590287404497e-02
      -3.5175342224035414e-02 5.7006564616491423e-02
      -4.0640880298861023e-02 9.9921671310166625e-03
      -2.0574567437665572e-02 -7.1188187684084900e-02
      -7.5281626853260829e-03 -7.0953144088238732e-02
      -9.7983214604561525e-02 -1.0603896049721862e-02
      -5.8132264043248852e-02 4.1102419294193393e-02
      -1.5123677405546956e-02 -1.1124644215846181e-02
      -1.0036524597199542e-01 -1.7777475243057408e-02
      -3.5186881865296601e-02 1.6157560062543926e-02
      -7.2919799541168564e-03 2.0201565368636570e-02
      -1.5627509198246070e-02 -5.8795359235752520e-02
      1.1120765599266105e-02 1.0932118877338207e-02
      6.0971297491180805e-02 -1.8299066274019397e-02
      2.6950240778400570e-02 -2.9137009218811093e-02
      4.8202051738714689e-02 1.7626717842515429e-02
      5.2165154515189195e-02 2.3668943283991078e-02
      -1.4274033959069555e-02 7.4747222710170147e-02
      1.8175168801240243e-02 8.7551194263724569e-02
      1.1797000496834882e-02 -5.9853885923039668e-02
      -4.0182416082577742e-02 -9.5388752844845631e-02
      -3.4288461093976839e-02 -2.5066919963187970e-02
      -2.7227950409991659e-02 5.9792334038997561e-03
      -9.5249377147218414e-02 2.9985972769967693e-02
      5.6672619220519888e-02 -5.8111024038938293e-03
      -2.7035667889672987e-02 3.9225425002695019e-02
      1.6271989574681685e-02 7.5813698576240977e-03
      -5.6401681730538285e-02 3.5594143750829269e-02
      -4.8390512473110520e-02 1.1756970921109752e-03
      3.6545404395063895e-02 7.1746036667572802e-02
      3.6850400790115811e-02 2.8939659435813087e-02
      -7.8819176396542179e-02 -5.1417207117116531e-02
      -2.6696346672024914e-02 1.2180865442229268e-01
      5.9076466289856445e-02 -5.4309022894869829e-02
      -2.4085845350302320e-02 -2.0259489206533973e-02
      -1.7286138126876301e-02 5.2293301446966194e-02
      3.2674633784663384e-02 4.3994547826785836e-02
      2.8668624145308245e-02 -7.6810441936024057e-02
      9.4903670482090439e-03 2.6665002179535401e-02
      -2.4331646758480416e-02 -4.9304969544973730e-02
      6.0516796577032593e-02 -4.3778520072888717e-02
      8.3879402892970259e-02 -1.4494218163314754e-02
      -8.1017450258519426e-04 1.6935869013744140e-02
      5.2861970583773003e-02 9.2647049600071609e-03
      3.0858736387119775e-02 -4.7678541473123469e-02
      2.6526925731649487e-02 6.6055851650730329e-02
      2.3251464686804137e-02 -2.0932592726553737e-02
      -6.4867931471042597e-02 9.5293971549799433e-02
      1.5605296724199974e-01 -6.1855462728072845e-02
      3.4913495017769858e-02 3.3729810696353224e-02
      7.5201170889266896e-03 5.6322802696658750e-02
      3.4889725948854131e-02 7.9140454058461138e-02
      -1.7118550967737310e-02 -1.4672611199758859e-01
      4.0216331172791830e-02 -7.7133459707921070e-02
      -6.3196199733963121e-02 8.3761033226675108e-02
      6.0606028287642652e-02 -1.9912131229900501e-02
      8.9856082635950546e-02 -5.0884245895257432e-02
      5.2147479136617041e-02 4.5059410482263931e-02
      7.8547966639768135e-03 -3.9457791838901780e-02
      1.9197096149901876e-02 5.0151062793770199e-03
      5.7738893120755065e-02 3.7634145303923644e-02
      7.8130871876200922e-02 2.5770997281716321e-02
      -4.1321910797064487e-02 6.1788425354646916e-04
      1.8543532984704781e-02 3.7142713963725711e-02
      3.2268306032210786e-02 -6.7568359572600907e-03
      -1.9602376507820245e-02 5.9758887616964698e-02
      -3.5093796109849279e-02 -5.2557636128938573e-03
      -1.8647916654737189e-02 -5.2892273732625568e-02
      -6.6297851112816168e-03 -5.5917440494270082e-02
      -6.8809137516225818e-02 -8.9574433621680220e-04
      -3.9433123118524468e-02 2.1157991240523592e-02
      -2.5216487641035751e-02 -3.3058435524638769e-03
      -8.3125538507998573e-02 -4.4526733165974709e-04
      -1.7000822717038937e-02 -4.2962800984775919e-03
      -3.1380929962363399e-02 4.5443391526184256e-02
      -1.8084641097671723e-02 -6.1340553694776027e-02
      5.3697938358470186e-03 -8.9708404823150185e-03
      3.8206755084560735e-02 -7.9270450155377228e-03
      3.8373465730167484e-02 -3.0065290889321888e-02
      5.8517941413573506e-02 1.0124040168710104e-02
      3.1512384006700728e-02 2.2042525173605824e-02
      -1.2930758246604043e-03 6.3967147128008717e-02
      2.5312508270285732e-02 8.8232803250262101e-02
      -1.1146047352799660e-03 -4.3900602880094272e-02
      -5.5723341901179953e-02 -8.3594006342746704e-02
      2.4773690009690388e-03 -3.9945351665983042e-03
      -1.9483124451437413e-02 2.0367630416704332e-02
      -5.8994321043561830e-02 3.7472578043282238e-02
      4.4258370951274016e-02 3.2867437969013696e-04
      -3.9410460927871836e-02 1.6262987369910768e-02
      1.6415451747845304e-02 1.6260504524882390e-02
      -3.5267259866798330e-02 2.6702923057919034e-02
      -2.8257041808410092e-02 2.9462629807351617e-02
      1.2206235736065513e-02 6.8585964023716847e-02
      2.6571283940660138e-02 2.8277805554701337e-02
      -7.3926216928673308e-02 -4.1460643751170166e-02
      -1.8246951002846061e-02 1.1821488497638963e-01
      6.8117242135239522e-02 -3.4076915719060338e-02
      -3.6785822882823976e-02 -4.4819537108588083e-02
      -1.1014136612984343e-02 1.7996539749798438e-02
      3.2602786174532057e-02 3.6791069098661783e-02
      2.5720411902299033e-02 -6.1612099316216376e-02
      -2.0091307705627399e-02 1.3132493674795246e-02
      -1.4857775830411566e-02 -4.9078429775486675e-02
      4.7816193898792207e-02 -5.5885145630337384e-02
      5.4205193932679654e-02 -4.5423122177125345e-02
      -1.0927624031553637e-02 7.5197534743578192e-03
      6.3561321032677087e-02 2.3428375498109656e-02
      1.9861817391442518e-02 -4.0951710005187172e-02
      3.0269918032637057e-03 5.3585366650110808e-02
      9.0170137928699181e-03 -2.9792075683420297e-02
      -4.9758356311930985e-02 8.5116657971169712e-02
      9.7707281198133877e-02 -3.8018732327629104e-02
      4.7978533037373455e-02 3.8258179883657616e-02
      4.1728609369848957e-02 4.6381683371370219e-02
      3.4438696708381393e-02 5.4161473860756162e-02
      -3.9003829559982484e-03 -1.2579701073574703e-01
      4.8903136360933575e-02 -6.9552412264437882e-02
      -2.5220989573971269e-02 3.3917600929464345e-02
      3.5267275983756896e-02 -4.7405505490576212e-02
      1.1245368771923533e-01 -3.4396177166004724e-02
      2.3431683799770515e-02 1.4601828409350093e-04
      -1.3646665634416289e-02 -4.9301634679155652e-02
      -7.6289762142145630e-04 -2.1375611352655598e-02
      2.3516293272056479e-02 -3.0728840386201188e-04
      1.2506695688792191e-01 4.7438336393039175e-02
      -3.6543930704942273e-02 2.6726203600622767e-02
      -2.9836369371819639e-02 4.8046478046506150e-02
      1.0426003405395276e-02 9.9791529972578109e-03
      4.0572498705863397e-03 6.8124738074777424e-02
      -1.3505053329919775e-02 1.7334795111119378e-02
      -1.0374883859534183e-02 3.7142708438731042e-04
      6.3717874724131913e-03 -2.2092855119780031e-02
      1.3704758776470647e-03 -3.0587857653407480e-02
      -9.5511581520298997e-02 1.8865464677571653e-02
      -1.1063612591350682e-02 -3.6487644386613951e-03
      -6.9363320816070873e-03 1.1398364197640325e-02
      -1.6823410553689477e-02 5.7499570541561788e-02
      -3.1971397768658934e-02 2.7120498249092250e-02
      -4.9595551966606331e-02 -1.8275308825232262e-02
      -1.8887459885189455e-02 1.0515561395443861e-02
      -1.7187053666224424e-02 -3.6136348175540865e-02
      -8.6265070959557818e-03 -4.9552295670499076e-02
      3.8869554505120751e-02 2.1039348323183694e-02
      6.3326512893345593e-02 6.9728131264192791e-03
      2.3055154895907190e-02 6.7021508940691588e-02
      6.7567312861139756e-03 7.1623457015051670e-02
      1.1363602836659381e-02 2.4970388695608726e-03
      1.2197585508395040e-02 -4.8523260740126986e-02
      2.4012560585025176e-02 8.0282010584918021e-03
      4.7140336277509631e-02 -3.3002394212166583e-03
      1.3335420520905587e-03 2.5823534135736868e-02
      2.7369180676336001e-02 8.9693498760890257e-03
      -5.1669901748484216e-02 -9.2410974064641629e-03
      2.2273574076940948e-02 3.3687007967657333e-03
      -3.2879031426216211e-02 2.4847162585800837e-02
      -2.9773225622832560e-02 3.4913762185152290e-02
      3.6482608417589012e-02 1.9209881104565334e-02
      3.1502946433589557e-02 -2.4728724566558690e-03
      -4.8603434934850039e-02 -6.8411741709601140e-02
      -2.3001242326095673e-02 7.1828451270747259e-02
      1.6913919942582983e-02 1.5767382960069850e-02
      -6.3272051609549795e-02 -2.3404464922183520e-02
      1.2208144616745194e-02 -5.9002874020243880e-02
      9.3889175015755846e-02 -1.0084990571558026e-03
      -1.6513248332901156e-02 -3.9059301824884596e-02
      1.1175747636345012e-03 -7.6662041281470861e-03
      -2.7023218985165100e-03 -3.3844994325260995e-02
      2.1252085681664624e-02 -3.8717018128939670e-02
      1.0694648683897476e-02 1.2996329973714277e-02
      2.5960823041707097e-02 -8.9863994817063943e-03
      -1.6868275495686445e-02 1.1117836665844838e-02
      -1.0017080433957858e-04 -2.8512668157522601e-02
      -3.6152056407531455e-02 1.5834719807854638e-02
      3.0050397651087451e-02 -1.0484389111465237e-03
      -3.6534145368703926e-02 8.9303532038567252e-02
      6.6915721762515951e-02 2.3856666238224754e-02
      4.2357037130391045e-02 3.3900054702136910e-02
      3.3448804605976483e-03 4.5417037690880763e-02
      9.9513578357562672e-03 5.0939433848888452e-02
      -1.8483111795256652e-02 -2.6399361762486910e-02
      8.2292783155775914e-02 -2.1582550989902353e-03
      -5.9493742628765056e-03 -4.8584984259046088e-02
      -2.7157906865590019e-02 -2.6656363415783623e-03
      5.9322552108588451e-02 6.6857085597374155e-03
      1.8576665469944471e-02 -5.2805676502576192e-02
      4.9648049389188209e-03 -4.7988706576182850e-02
      1.5381336617314497e-02 -1.2616724518308524e-02
      -1.1529056107773498e-02 -9.7712874770964747e-05
      1.5849515151404864e-01 1.0389899926282442e-02
      -7.6995128329658089e-02 6.3299570473031568e-03
      1.7553622255166473e-02 2.6319660742489003e-02
      -1.3618019955119756e-02 4.8396826471397307e-02
      3.0668652239861954e-02 1.0540175159823320e-01
      1.3526439946715745e-02 7.5245141669913335e-03
      -3.3171022411745112e-02 -5.7741123855499068e-03
      -2.6783233620625319e-02 1.3528448700552167e-02
      2.3795577557294677e-02 -4.9289008126117632e-02
      -9.0311467494476813e-02 1.6445519885680986e-03
      1.9005773298851936e-02 -2.9348439342723277e-02
      1.1509975169631717e-02 -2.8787769460323159e-02
      2.1130150894666570e-02 5.3566399915219713e-02
      -1.2757975192850567e-02 2.0621967932520312e-02
      -7.3028680872913018e-02 -2.6208401449768201e-02
      1.3633956131122369e-02 -4.3974352189755737e-03
      8.3734424233279344e-04 -1.8738272537765478e-02
      -4.6511528946163311e-02 -4.6012630077853344e-03
      2.6519275072559030e-02 3.3213730633255223e-02
      7.0004464149233211e-02 -3.7405711186813149e-02
      3.0599737801879096e-03 9.2374504575615343e-02
      -6.1084204256476229e-03 -1.8171295886305960e-02
      -3.9242113450378190e-03 -1.0262370298459167e-02
      7.0906207748371336e-02 3.1286940393114984e-02
      4.6783289972241834e-02 1.2645774110316824e-02
      5.8515989280495839e-02 -4.8876266947282462e-02
      4.1700644879079679e-02 -3.3374788511010542e-02
      -8.2108978675333490e-03 -1.5717591817325457e-02
      -5.1549315975719913e-02 -1.6707454417412167e-02
      -3.4849741680181533e-03 -9.1644467575406584e-03
      -4.7967733183922640e-02 1.7327314213731772e-02
      1.6906767528542529e-02 3.1278471700054954e-02
      2.6551039340635765e-02 -5.7718436394066694e-02
      -1.9652940887798020e-02 -5.4078415148437177e-02
      -3.4036943486322330e-02 -6.1843604588028074e-02
      -4.9106770384162300e-02 -4.1462240856699950e-03
      1.0656494476617377e-02 -6.4543246602730515e-03
      -7.5856737737541910e-02 2.8298221053348793e-02
      3.0889939180532407e-02 -6.7084020704109237e-02
      9.4384105595486559e-02 -3.3717744025250483e-02
      -2.4288271959004997e-02 1.2551732261806131e-03
      2.0616083925980881e-03 -4.0698862290887761e-02
      3.5867593745611562e-02 1.9496902639044632e-03
      -7.0206503823507984e-03 -4.1471057403588425e-02
      3.0613984087244730e-03 2.4219543672149787e-02
      3.0212465662948367e-02 1.2759863268701549e-02
      -3.9824061922708744e-02 3.5081025302943811e-02
      1.3482841817239714e-02 -2.9658509738094294e-02
      -3.8683546710613630e-02 4.0086831573946007e-03
      8.2838419669438029e-02 -2.8710111978326517e-02
      -1.2026544076340438e-02 4.9862127553773242e-02
      -4.0757244396749263e-02 -3.0180708345781248e-02
      3.7514535138997357e-02 -2.3968324063823238e-03
      1.0010899805316743e-04 8.3844729576467558e-03
      -2.2114613040005791e-03 -1.4022140722819102e-02
      -2.5897971321115484e-02 4.0302579454647325e-02
      7.4426359673419346e-02 1.0188140230274466e-02
      -5.6373808181823484e-02 -1.0631873471707880e-01
      -3.0072366331757121e-02 2.0624679280071896e-02
      9.5651515530778709e-03 4.9096720341185833e-02
      7.0867838253153787e-03 -6.0701816250187772e-02
      4.3385584285502724e-02 -6.2967388289561735e-02
      4.0551055850095011e-02 -2.4082698103033238e-02
      -4.5102997971205712e-02 5.0298671901519657e-03
      1.4849549210230603e-01 -2.7667196771655713e-02
      -9.0963627049073306e-02 -4.7862900998646360e-02
      7.3217407925491224e-02 2.4325738401157565e-02
      -7.2608242941471311e-03 3.8323801257063882e-02
      4.2436481559088177e-02 1.0905562301293553e-01
      1.5443733359628928e-03 1.9200322465040196e-02
      -4.7592611117944141e-02 -3.0944310842654879e-02
      -9.4326007672775741e-02 7.5901895347892144e-03
      8.0281476686534163e-04 -6.3336327882629745e-02
      -6.3727547830183612e-02 -1.9740179720452649e-02
      4.0704302757505077e-02 -3.3270322627117613e-02
      -1.3100580016504009e-02 -5.3629219856315448e-02
      3.8794902014812963e-02 4.5993306018841641e-02
      -1.3860562892005492e-02 2.5432497493864246e-02
      -5.4692065628693984e-02 -3.6362952238647994e-02
      5.2096225138047694e-02 -4.2197251176171013e-02
      5.9743896369839497e-02 4.5348962671794392e-03
      -3.8186621404275235e-02 1.9718776523061501e-02
      6.4393266420526951e-02 2.9185736877749502e-02
      6.6203353218197300e-02 -3.8061062895980005e-02
      -4.3023648112674425e-03 1.0737248401167911e-01
      3.8956990457499723e-03 -5.6506545466221164e-02
      -3.5113560908196312e-02 -4.8143324967871770e-02
      6.2286571796925483e-02 9.7115122495528741e-02
      6.1959180806329381e-02 -4.1425775840226954e-03
      -2.8679164416868513e-04 -8.1121763171574268e-02
      6.5501642257752318e-02 -7.6951472495965373e-02
      -3.1966629242647517e-02 1.1441646656760058e-02
      -6.4247837258424548e-02 6.5220516894062830e-03
      -2.1690731682220726e-02 -2.8297170303870599e-02
      -4.3598372367330301e-02 5.9589106579423338e-02
      4.3435758832777789e-02 1.7618647764282090e-02
      2.1666714545796533e-02 -9.4888807339798015e-02
      -6.2268667880245376e-02 -4.6530720157534351e-02
      -4.0866998876701727e-02 -4.2222569140385156e-02
      -6.4565895441594648e-02 -3.8259277465202413e-02
      6.9324548124972823e-02 -6.5963393831078368e-02
      -6.9150754263200984e-02 6.2912589874941707e-02
      5.2324519755086139e-02 -4.2368751059060197e-02
      5.5863889289307023e-02 -4.0979879149659407e-02
      -1.1867452343406868e-02 -2.4362500863591473e-03
      1.0260882266360972e-02 -5.2440151644508659e-02
      4.4529904986678324e-02 -1.6048889408248784e-03
      2.8206288848583263e-03 -4.3619743370470615e-02
      -3.2261390529834233e-02 2.1346340145449415e-02
      3.3945675166458938e-02 -2.7601459368928336e-03
      -5.7245967595644411e-03 4.4956311367445392e-02
      2.1571074351112371e-02 -4.2995154395713331e-02
      -1.9495066790603238e-02 -1.6950641882703707e-03
      8.5960057619982447e-02 -5.7518552074959151e-02
      -1.0374099381665051e-02 6.7466886740623995e-03
      -1.0400558133704416e-01 -8.7739406914155590e-02
      3.1554295689868880e-02 -2.8756449598268022e-02
      1.7026065122398518e-02 5.7598494662418993e-03
      4.0623048002491453e-02 -7.0794781692663775e-02
      -2.5909278795864275e-02 2.6118815218469264e-02
      5.2921835148009924e-02 -4.0232215638955238e-02
      -3.8380752671508950e-02 -7.9998534657989229e-02
      -2.3016267685137596e-02 1.0633295218940488e-02
      3.8209196053810048e-02 2.4320522033965807e-02
      1.7571463547123193e-02 -5.9463028131744915e-02
      7.2425321434649095e-02 -6.5709340575197950e-02
      6.1657238699590798e-02 2.5332794386375528e-03
      -1.8962085397666126e-02 8.4228338739257263e-03
      1.5585141345583611e-01 -3.5377061439492971e-02
      -6.0268792343071212e-02 -5.4610726424952044e-02
      7.6010305600874989e-02 3.4496688836288571e-02
      2.3831996646134701e-03 4.3806748567242385e-02
      8.0944961616587208e-03 9.0697642451158550e-02
      -1.9736508873667942e-03 7.9232615671355391e-03
      -4.8558925367128018e-02 -4.3676119646340578e-02
      -8.2911837626131649e-02 1.0495464598297827e-02
      -4.6919532586926209e-02 -5.1009481787876641e-02
      -4.7727638608445692e-02 -7.9867220825553184e-03
      4.5593534909860012e-02 -4.7073969857511895e-02
      -1.8296190930089412e-02 -6.2225045642902051e-02
      2.0814807951002847e-02 9.9244743135777178e-02
      1.5719696334946273e-03 1.7239079377978358e-02
      -7.7071174346188848e-02 -1.8552963806131282e-02
      5.1154738533011328e-02 -4.5462317815349804e-02
      6.0941428839762800e-02 1.8972910876360416e-03
      -4.2188940673572491e-02 3.5708600483759873e-02
      3.4171474285714487e-02 4.3675226794519427e-02
      1.0586989081170238e-01 -2.7355583257630236e-02
      -1.6269659014694876e-03 9.7422388988045325e-02
      -9.0555923305470751e-05 -2.1946831504226515e-02
      5.1980458215499827e-03 -5.8948275897284366e-02
      4.7403366105070670e-02 8.2745346050928162e-02
      4.4074836894353021e-02 -2.0441151329672466e-03
      -1.3309791353851620e-02 -6.3527905175506078e-02
      3.4919923876268182e-02 -5.8995797064648935e-02
      -3.2316550025541069e-02 9.2421672247379547e-03
      -5.4515988451308929e-02 3.8759583940129613e-02
      -3.2976186189799903e-02 -1.0044924460469694e-02
      -5.2712340844214396e-02 7.8592357765072160e-02
      3.0852955357709422e-02 1.1656468969042830e-02
      5.1636595440897236e-02 -8.9756494302505527e-02
      -4.8290584804665818e-02 -5.7994688044500045e-02
      -3.1834160195383897e-02 -4.0557830216191963e-02
      -3.6345544144709835e-02 5.5361751487564958e-03
      5.2116007937195667e-02 -6.9657048365902932e-02
      -5.7744677555490266e-02 5.9610335581924384e-02
      3.6323800929710333e-02 6.4870630059286338e-03
      4.8061802582679197e-02 -1.6638958818048222e-02
      -9.9145222332333170e-04 -3.9131921638382583e-02
      2.8048035952703151e-02 -4.1037647252462596e-02
      4.9373360435981485e-02 -4.2378423757337674e-03
      -4.8475264477625827e-03 -6.1726903165149921e-02
      5.8625294230797717e-03 4.6676686862464060e-02
      1.7876860595533884e-02 3.0582215125968464e-02
      9.5525013205521279e-03 5.5306398632261125e-02
      2.5836747595279274e-02 -2.9997922469463967e-02
      1.6212266883839723e-02 1.6903551846366247e-03
      4.8814079233091320e-02 -6.1176006990622742e-02
      -1.9092594053017484e-02 1.4217463448604601e-02
      -8.4770886537496731e-02 -1.1306040175882322e-01
      -3.8466196999401714e-04 -3.5125735292943099e-02
      -1.6145068325538244e-02 3.4247406683706114e-02
      1.2948556831626679e-02 -6.5611802284185491e-02
      -5.3445855683545755e-02 -9.5130607052341422e-03
      5.7828946863827807e-02 -5.3403507598216764e-02
      -4.4907291848554534e-02 -6.1112269169913587e-02
      -1.6234925425229751e-02 3.8332123803791966e-02
      5.4047477476421031e-02 1.6087032711019505e-02
      -2.4375453751596936e-02 -7.0505826184565065e-02
      7.8352220181502008e-02 -5.5834210855391080e-02
      5.1376867180580356e-03 -2.7388843145026869e-02
      -1.3456113857178636e-02 -3.0380894357261507e-02
      4.1118315791931252e-02 -1.2536287130468060e-02
      1.1036636511378317e-02 -3.4164841883925622e-02
      1.8743745959142084e-02 1.7379134070259847e-02
      1.5054362699933353e-02 6.5774207303499144e-02
      1.2639570538826129e-02 4.6327884152060246e-02
      4.8580687434506775e-02 -8.8527344234477171e-03
      -2.6744488802118362e-02 2.9374339542163602e-02
      -5.7067536401771729e-02 1.2923289943891920e-02
      -4.0187513782461666e-02 -7.4177094719440353e-02
      -3.7228564621327218e-02 2.3708437235696940e-02
      6.6447561608792491e-02 1.0693117425540992e-02
      7.0662982872449057e-02 2.9116974955020131e-03
      3.7124683229443178e-02 1.4899768634367688e-01
      -1.4382971153133370e-02 3.0616702893764263e-02
      -2.0139184434715338e-02 7.6338495412387977e-02
      1.1899113962495139e-02 -1.6446158310854084e-02
      2.8995701935295902e-02 -1.8577150617014409e-02
      -5.7805852970602631e-02 -5.5975832486952391e-02
      5.7303811860784780e-02 -1.1997884474181616e-02
      6.2944336242307386e-02 1.3492984912443644e-02
      1.8822259892484613e-03 5.0110968586875915e-02
      2.2729370147278997e-02 2.5263435844586069e-02
      1.9631447081547067e-02 -5.0459543149900803e-02
      -5.1630656371004099e-02 4.6879069894841509e-02
      9.4110989755574484e-02 2.9082751302473238e-02
      2.6774404209173389e-02 -7.6653200939090407e-02
      6.3311054053110757e-02 -4.9362542276956169e-02
      -4.9894191711875570e-02 -4.0642076685999722e-02
      -3.9942976001592460e-02 -1.8794632732170830e-02
      -5.8090669941411400e-03 1.8589440954556904e-02
      -8.5379355483668120e-03 3.5043911666850246e-02
      1.5895243729258095e-02 -2.0664569155890145e-02
      5.9868696519757909e-02 -1.1115587059980815e-02
      -2.4801238920877492e-02 -1.5045005274295496e-02
      3.1819872936694638e-02 -5.3043723018129207e-02
      -1.5504039497872810e-02 6.1542135080269657e-02
      8.0807891470343465e-02 -1.9404032935642607e-02
      1.2690114520600339e-03 4.5474515586001133e-03
      3.8751062474056457e-02 -2.5789105921768515e-02
      1.7746644263397386e-02 -1.2875889961662912e-02
      -3.0616471087240353e-02 -5.1238552640662016e-02
      2.6552009979055265e-02 -2.2355893739046565e-02
      2.2416230839123344e-03 -1.0565780343398640e-02
      -8.7661707696199478e-03 -5.1252257272421234e-02
      -3.5384197945331743e-02 -3.1652728292445927e-02
      -3.3772843493987872e-03 -2.4378909384615323e-02
      3.8683416769894195e-02 3.0491113122753478e-02
      -3.3737927473711647e-02 -4.2184444244094899e-02
      -6.5779775841352972e-02 -7.3601994695855641e-02
      -2.8806704652956473e-02 1.8556408867945930e-02
      -1.4912086457413522e-02 1.8990421349126957e-02
      -9.3340154349282223e-02 -1.9705659015475292e-02
      1.8169477299811002e-02 3.8443610301111687e-02
      -1.2545228009802713e-02 4.7439298243245734e-02
      -5.3789368374261683e-03 2.2703255583639894e-04
      -4.4759303660802462e-02 -4.9268584193334942e-03
      1.4336410067270303e-02 -3.4196273450737377e-02
      2.4340888502249122e-02 -3.0192154927620837e-02
      5.6171937623981726e-02 -3.7308642196219044e-02
      5.1723352737606129e-02 -9.2569124591309060e-02
      5.3362814304130524e-03 -6.0275108595012401e-02
      -1.6502103507186311e-02 4.6110437072978225e-02
      1.7647255275495835e-02 -5.9864153622601959e-03
      3.7617128581741849e-02 1.2785222739383243e-03
      1.1743365238502649e-02 5.1872818395886193e-02
      -4.5919266791006122e-02 6.0797356814663887e-03
      -8.3465712352492533e-02 1.4535612748867914e-03
      -4.0649577898930075e-02 -2.9426613760280881e-02
      -5.7275516073537695e-02 -1.4531985828568418e-02
      -1.6408466422081262e-02 -2.2105635809491514e-02
      -7.6670785645430277e-03 -6.7383366889295790e-02
      -1.3001040265997861e-02 -3.4279930893355570e-03
      1.7997166358442705e-02 -1.2362234856851775e-02
      8.9429212454790203e-03 -8.3623132376609999e-03
      -6.9231931272886793e-02 -1.5265914225952268e-02
      3.0461138888387529e-02 -1.8922845663992677e-02
      -9.2438028241997074e-03 5.7921608638600200e-02
      -7.8184929084336358e-02 -1.0315369526684595e-02
      3.3920434135872347e-03 6.0794144044380733e-03
      -4.7377754238534964e-02 -9.8966290960952816e-03
      3.8481857815966039e-02 8.2943241835506040e-03
      1.3444762023477781e-02 3.1613079909315099e-03
      -1.6774464358282885e-02 -2.7160075276632688e-02
      -5.0643721648528296e-02 1.0639166471226024e-02
      2.9069270568184535e-02 1.6833745628643974e-02
      7.1837908084273441e-02 -1.2273932961130342e-02
      1.4003368345631352e-02 3.8629095314486758e-02
      -2.8761971006969037e-02 3.4309569781335418e-02
      1.3123012771230208e-03 -2.5532576470188573e-02
      2.5325938592136020e-02 3.3855968573028201e-02
      4.2946040186241799e-03 1.4444838628555789e-02
      -9.0866945858997569e-03 7.8097433258233172e-03
      -4.5084870398760170e-02 9.7248892719006604e-03
      -2.5307902052590741e-02 -1.4453219885621912e-02
      4.0220175835110346e-02 -1.7690385400435524e-02
      1.3956410656962790e-02 5.1605390093605093e-03
      1.5248244615698207e-02 -1.2112709291096663e-02
      2.6194852696069325e-02 -9.0968024635822865e-03
      1.1803205407061314e-02 5.2498591298741305e-03
      2.6806084219961463e-02 -6.5627712798259019e-02
      -4.9220004006289945e-02 1.1148177237375628e-02
      -1.6266688987410603e-02 -9.6694344345598197e-03
      -6.4777447772723956e-02 4.2762098943264819e-02
      1.5226932527613926e-03 2.6592297279204837e-02
      2.7691241797928208e-02 1.5645804165208943e-02
      -3.2035872083154449e-02 -4.5590632911097509e-02
      2.2814109198980033e-02 -4.9235141820584784e-02
      1.4891382598222102e-02 -2.6661207472953575e-02
      1.6287716692072757e-02 2.3373110767431014e-02
      7.3475794674197990e-03 -2.5546975470663934e-03
      8.2623413188040321e-04 1.2621064058610939e-02
      -3.9829972167833953e-03 -3.4293343450648097e-03
      -7.4549996416037559e-02 6.5980126396347977e-03
      3.9327271902761508e-02 1.4803005647980110e-02
      -6.0359897264203634e-02 4.1393419996347311e-02
      -1.9725392829371087e-02 3.2008639555740154e-02
      -8.7596119632860261e-03 -1.8443346100440676e-02
      2.8329269968311553e-02 -1.6509892293393461e-02
      2.5806369910888187e-02 -4.8325906750744267e-02
      -2.6647228072748230e-03 1.1670186254586729e-02
      4.7511514060114578e-02 2.3569934411438207e-02
      4.3733987099413285e-02 -6.1717842061826143e-02
      1.4347999045676544e-02 -2.1415942980360664e-02
      -9.6075319097561583e-03 -7.0092054895868727e-02
      2.5639057221510143e-02 -7.2886731332745591e-02
      -3.4212238740678844e-02 3.3477461926172840e-02
      2.7517957350294588e-02 4.2640773205157828e-02
      -1.4545948841368662e-02 -2.7646252653045995e-02
      5.3801305365469732e-02 4.9667836073657455e-02
      -8.5592274073256841e-02 -1.9736611028948435e-02
      -1.3551852985096121e-02 -1.7036167582684034e-02
      -1.0314763555338473e-01 -6.7951386651310758e-02
      -9.9002903212635593e-02 -2.8205445957348974e-02
      -1.4142258325328500e-02 -7.9241261281396996e-02
      7.4100061005834775e-03 -1.8390909990359784e-02
      1.3911379195101990e-02 2.0052738796506077e-02
      3.4599177885863308e-02 -1.2138986339759400e-02
      5.2509248938562209e-04 2.1403643250157436e-02
      -4.5418582510290337e-02 -6.4162789966072567e-02
      6.1784814202471373e-02 -3.3701333791563912e-02
      -1.1377916138036305e-02 2.0732206036968254e-02
      -6.3583700446694605e-02 -4.3189433462586767e-02
      -4.1951585204326826e-02 -4.8227129696247505e-02
